<?xml version="1.0"?>
<opencv_storage>
<my_svm type_id="opencv-ml-svm">
  <svm_type>C_SVC</svm_type>
  <kernel><type>POLY</type>
    <degree>2.</degree>
    <gamma>1.</gamma>
    <coef0>1.</coef0></kernel>
  <C>1.</C>
  <term_criteria><epsilon>1.0000000474974513e-03</epsilon>
    <iterations>2147483647</iterations></term_criteria>
  <var_all>849</var_all>
  <var_count>849</var_count>
  <class_count>2</class_count>
  <class_labels type_id="opencv-matrix">
    <rows>1</rows>
    <cols>2</cols>
    <dt>i</dt>
    <data>
      0 1</data></class_labels>
  <class_weights type_id="opencv-matrix">
    <rows>1</rows>
    <cols>2</cols>
    <dt>d</dt>
    <data>
      1. 1.</data></class_weights>
  <sv_total>1030</sv_total>
  <support_vectors>
    <_>
      16. 784. 80. 256. 576. 128. 416. 448. 0. 80. 208. 144. 160. 384.
      32. 384. 384. 32. 320. 160. 96. 32. 32. 224. 352. 192. 0. 4. 28.
      20. 8. 16. 8. 44. 36. 12. 64. 48. 0. 16. 40. 8. 20. 28. 4. 156.
      68. 44. 168. 120. 144. 16. 56. 32. 100. 44. 44. 80. 16. 16. 4. 20.
      12. 4. 4. 12. 252. 36. 52. 208. 176. 104. 12. 340. 60. 152. 408.
      8. 4. 324. 92. 100. 148. 84. 28. 44. 20. 360. 80. 56. 128. 72. 24.
      60. 108. 12. 120. 160. 40. 8. 104. 96. 140. 36. 44. 68. 60. 20.
      420. 44. 4. 100. 12. 52. 68. 60. 20. 80. 80. 0. 56. 32. 48. 96.
      16. 0. 64. 8. 24. 400. 8. 24. 20. 28. 28. 88. 56. 0. 60. 36. 20.
      32. 24. 40. 80. 48. 16. 12. 4. 28. 304. 48. 72. 32. 0. 24. 68. 4.
      20. 28. 28. 12. 52. 20. 20. 48. 16. 16. 40. 56. 24. 148. 4. 84.
      -2. -6. 2. -4. -2. 2. 5. 1. 1. 0. 2. 0. -6. 0. -2. -4. -4. -2. -4.
      -8. -2. -14. -6. 4. 0. -2. 0. -1. -1. 1. -9. -3. -3. -1. -7. -1.
      1. -7. 1. -22. -8. -2. -14. -10. 0. -1. 1. -1. -1. 1. 1. 4. 0. -2.
      0. -2. 0. -8. -2. 0. -6. -2. 0. -5. -1. 1. -9. 1. 1. 0. 2. 0. 0.
      2. 0. -14. 0. -2. -2. -2. 0. 1. -3. -1. -28. -8. -4. -17. -15. -3.
      2. -18. 4. 4. -10. 4. 2. -6. 0. -1. -7. -1. -8. -8. 0. -8. -10.
      -2. -6. -14. -2. -12. -20. -4. 1. -23. 1. 0. -22. 0. -7. -13. 9.
      -1. -3. 1. 3. 1. 3. -39. -3. -7. -25. -15. -5. 18. -50. 12. 26.
      -20. 18. 10. 6. 8. 1. 17. 3. -7. 21. 1. -16. 16. -6. -12. 6. -4.
      -15. 3. 1. 1. 3. -1. 0. 2. 0. 1. 1. -1. 0. 0. 0. 5. -1. -1. -49.
      -5. -3. -33. -11. -3. 33. -15. 3. 50. -6. 6. 25. 7. 7. 4. 14. 0.
      -10. 10. -4. -24. 4. -2. -16. 2. 0. -14. 2. 0. 0. 2. 0. 0. 2. 0.
      4. 6. 4. 1. 11. 1. -1. 7. -5. -56. -2. -4. -38. -8. -2. 24. -8.
      -12. 36. -40. -20. 14. -78. -18. -2. -102. -6. -22. -116. -8. -20.
      -118. 6. -13. -109. 3. 10. -82. 24. 8. -50. 8. 11. -31. 11. 15.
      -13. 7. 3. -5. 1. -9. -7. -3. -65. -15. -5. -44. -24. -4. 13. -5.
      1. 18. -2. 2. 3. 7. 7. -6. 16. 2. -25. 23. 5. -21. 21. -7. -14.
      10. -4. 21. -7. -13. 17. -19. 1. 25. -15. 3. 25. -9. 3. 4. -6. 0.
      -11. -5. 1. -74. -8. -4. -50. -14. -2. 15. 7. 1. 22. 10. 2. 7. 9.
      -3. -2. 8. 2. -13. 17. 7. -19. 33. 9. -12. 48. 6. -9. 37. -17. 9.
      11. -9. 15. -11. -13. 34. -18. 6. 7. -9. 3. -5. -1. 5. -80. 2. -2.
      -54. -2. -2. 18. 16. 2. 27. 21. 3. 3. 23. -1. -4. 18. -4. -18. 2.
      -12. -9. -9. 1. -5. -7. 1. -23. -3. 3. 2. 2. 2. 4. 6. 2. 36. 4.
      -4. 7. -3. -3. -6. -12. -6. -77. -13. 5. -52. -4. 4. 18. 12. -2.
      27. 7. -3. -2. 0. -4. -10. -6. -2. -36. -14. -6. -6. -18. 2. -4.
      -16. 0. -14. -10. 6. 2. -6. -2. 4. -10. -2. 37. -7. 5. 5. -1. 1.
      -13. -1. -1. -72. -2. 0. -47. -1. 1. 8. -10. -8. 12. -30. -12. -5.
      -41. 1. -8. -36. 4. -24. -14. 18. -5. 3. -1. -5. 1. -1. -1. 7. 7.
      3. 17. 3. 5. 23. 3. 32. 16. -10. 3. 3. -3. -17. -3. -3. -64. 2. 8.
      -41. 15. 5. 2. 0. 2. 1. 3. 1. -4. 4. 0. -5. 3. -1. -9. -1. -3. -4.
      -2. 2. -4. 2. 2. 10. 8. 4. 4. 10. -2. 7. 7. -1. 20. 4. -2. 0. 2.
      0. -22. 0. -2. -49. 5. 7. -32. 16. 4. 2. 14. -2. 1. 11. -1. -9. 5.
      -5. -8. -2. -2. -18. -10. -6. -1. -15. 1. -1. -13. 1. 17. -9. 3.
      2. -6. 0. 5. -7. -1. 19. -7. 1. 0. -6. 0. -24. -6. 0. -35. 1. 7.
      -23. 13. 5. -1. -1. -1. -2. -4. -2. -13. -5. 1. -9. -3. 1. -21. 1.
      3. 1. 5. 1. 0. 6. 0. 16. 2. -4. 2. -2. 0. 4. -2. 0. 18. -4. -2.
      -1. -7. -1. -27. -11. -3. -17. -3. 11. -11. 15. 7. -4. -2. -2. -7.
      -7. -3. -9. -7. 3. -4. 0. 4. -9. 13. 9. 2. 22. 0. 0. 22. 0. 6. 16.
      -6. 2. 10. 0. 3. 9. -1. 8. 0. -8. -5. -11. -3. -32. -16. -2. 1.
      -11. 7. 1. 1. 5.</_>
    <_>
      2432. 896. 1248. 160. 96. 256. 768. 512. 352. 720. 1328. 464. 16.
      432. 432. 592. 176. 176. 208. 336. 48. 272. 464. 176. 752. 656.
      16. 16. 48. 16. 848. 128. 96. 164. 148. 76. 24. 72. 144. 264. 264.
      48. 468. 460. 148. 648. 544. 64. 64. 264. 64. 508. 84. 244. 200.
      200. 40. 112. 296. 56. 52. 188. 164. 148. 148. 172. 284. 20. 300.
      92. 596. 36. 180. 476. 84. 132. 364. 28. 44. 324. 12. 4. 196. 116.
      44. 12. 68. 116. 156. 100. 40. 96. 16. 76. 60. 20. 76. 12. 28. 4.
      44. 28. 152. 104. 32. 136. 160. 24. 116. 84. 100. 32. 96. 8. 44.
      92. 12. 16. 48. 32. 52. 12. 28. 128. 16. 56. 104. 128. 56. 52.
      148. 36. 36. 52. 4. 32. 48. 0. 4. 60. 12. 60. 92. 20. 72. 112. 0.
      56. 104. 8. 136. 48. 48. 24. 8. 8. 28. 20. 4. 12. 20. 4. 12. 12.
      28. 36. 76. 36. 36. 140. 28. 268. 84. 84. 13. -23. -17. -11. -27.
      13. -4. -8. 6. 103. -23. -21. 267. -31. 13. -62. 42. 60. -97. 193.
      91. 17. 269. -15. 4. 240. -14. -4. 212. -14. -154. 128. -70. -73.
      21. -37. -10. -12. 4. 90. 52. 60. 187. 29. -83. -2. -4. 2. 1. -3.
      -1. 2. -4. 0. 64. -22. -18. 291. -29. 11. 0. -16. 2. -6. -14. 0.
      -4. -20. -6. -9. -25. 1. -20. -26. -2. -176. 20. 48. -103. 75. 7.
      -7. 81. -1. 177. 107. 27. 52. 82. -52. 0. -2. 0. 0. -2. 0. 1. -3.
      -1. 36. -14. -10. 305. -21. 3. -21. -41. -23. -144. -202. -138.
      101. -229. 111. 25. -85. 33. -37. -67. -15. -59. -13. 69. -47.
      105. 49. -4. 158. 4. 147. 105. -57. 0. 48. 0. 0. -2. 0. 2. 0. 2.
      0. 2. 0. 21. -3. -5. 220. -96. -88. -25. -165. 19. -147. -11. 135.
      106. 18. -106. 43. -103. -15. -6. -72. 46. 21. -15. 11. 4. -2. 2.
      6. 6. 6. 85. 7. -5. -40. -38. -40. 15. 107. 15. 17. 135. 13. 15.
      163. 15. 19. 181. 3. 82. 134. -50. 4. 94. 10. -10. 106. 2. 8. 116.
      8. 21. 117. -7. 18. 88. -22. -3. 31. -35. 6. -4. 0. 6. -10. -6.
      41. -55. -39. -96. -110. -16. 18. 98. -12. 19. 75. -11. 18. 52.
      -12. 16. 34. -6. 30. 26. -2. 15. 25. 1. -3. 31. 5. 11. 31. -5. 11.
      23. -3. -2. 22. 2. -54. 8. -16. 6. -8. 0. 2. -6. 2. 1. -5. -1.
      -98. 8. 14. 6. 16. 0. 7. 15. -1. 5. 13. -1. 10. 12. 0. 24. 8. -4.
      14. 2. -2. 2. 0. 0. 4. -2. -2. 5. -7. -3. 1. -9. 1. -69. -7. 1. 5.
      -7. -1. 3. -9. -1. 1. -9. 1. -112. -36. -28. 5. 15. -1. 4. 12. -2.
      5. 11. 1. 9. 11. -1. 17. 7. -3. 10. 2. -2. -2. -4. -4. -3. -13.
      -5. -3. -23. -5. 1. -29. -1. -58. -20. 10. 2. -12. -2. 1. -15. -1.
      2. -16. 0. -105. 19. 35. 3. 7. -1. 3. 7. 1. 5. 7. -1. 7. 5. -1.
      10. 0. -4. 7. -5. -1. -1. -1. 5. -3. 9. 5. -6. 16. 2. -8. 10. -8.
      -71. -21. -23. -5. -49. -5. 4. -50. 4. 6. -42. 4. -26. 6. 44. 3.
      11. 1. 4. 12. 0. 4. 12. 0. 5. 11. -1. 7. 11. 1. 5. 11. -1. 0. 6.
      -4. -3. -3. -5. -7. -11. -3. -15. -13. 1. -53. 29. 41. -9. 71. 1.
      -5. 59. -13. -4. 32. -14. -2. -2. -20. 5. 17. 1. 4. 18. 0. 4. 18.
      0. 4. 18. 0. 4. 14. -4. -1. 5. -5. -8. -4. -4. -11. -11. -3. -10.
      -14. 0. -9. -9. 5. -8. 0. 4. -4. 8. 4. -8. 22. 10. -11. 39. 7.
      -12. 56. 10. 6. 6. 0. 4. 6. 0. 5. 7. 1. 4. 8. 0. 1. 9. 1. -5. 11.
      1. -9. 15. 3. -12. 20. 2. -12. 20. -2. -9. 13. -5. -6. 6. -2. -3.
      1. -3. -1. -5. -3. -2. -6. 2. -1. -3. 1. 6. -2. 0. 4. -2. 0. 4.
      -4. -2. 3. -7. -1. 4. -6. 2. 0. 0. 4. -1. 9. 5. -5. 19. 5. -8. 30.
      6. -10. 40. 4. -9. 43. -1. -7. 41. -1. -7. 37. -3. -19. 15. -19.
      -48. -52. -48. 4. 4. -2. 4. 2. 0. 2. 2. 0. 2. 2. 0. 4. 0. -2. 3.
      -3. -1. 4. -4. 0. 1. -3. 1. -1. -1. 1. -2. 4. 4. -6. 12. 4. -4.
      20. 4. -13. 21. -3. -104. -48. -66. -44. -62. 52. 2. -6. 0. 3. -7.
      -1. 2. -8. 0. 3. -7. 1. 2. -6. 0. 2. -6. 0. 3. -7. -1. 2. -8. 0.
      0. -8. 0. 1. -9. -1. -1. -9. 1. 1. -7. 1. -7. 3. 9. -84. 98. 86.
      0. 176. -8.</_>
    <_>
      400. 400. 240. 32. 672. 32. 32. 800. 96. 160. 1184. 480. 192.
      1472. 192. 80. 1264. 16. 144. 496. 176. 224. 480. 160. 80. 656.
      16. 52. 60. 4. 48. 48. 104. 48. 248. 96. 24. 376. 32. 48. 416. 8.
      12. 452. 28. 20. 516. 36. 100. 12. 52. 352. 136. 200. 16. 176.
      160. 248. 256. 240. 440. 96. 400. 404. 84. 388. 336. 80. 392. 172.
      164. 20. 364. 44. 188. 232. 288. 56. 364. 468. 124. 492. 244. 348.
      384. 304. 408. 244. 228. 484. 112. 232. 80. 68. 260. 108. 144.
      224. 144. 208. 112. 32. 48. 48. 96. 28. 44. 4. 156. 44. 84. 32.
      56. 0. 64. 80. 24. 0. 104. 0. 88. 192. 88. 28. 300. 20. 16. 304.
      16. 44. 316. 28. 16. 128. 16. 44. 68. 44. 8. 16. 8. 4. 4. 4. 8. 0.
      0. 0. 0. 0. 12. 4. 4. 0. 16. 0. 4. 12. 4. 12. 12. 4. 8. 16. 0. 8.
      16. 0. 4. 12. 4. 8. 8. 0. 5. 175. -5. 7. 161. -9. 7. 143. -9. 7.
      129. -5. 6. 116. -8. 7. 101. -7. 6. 86. -8. 8. 70. -8. 6. 54. -8.
      8. 38. -8. 8. 22. -8. 4. 8. -6. 3. -1. -3. 1. -5. -1. 1. -7. -1.
      -9. -15. -9. -1. -23. 1. 6. -14. 8. 1. -7. -1. -29. -35. -27. -25.
      -87. -25. -16. -126. -14. -14. -154. -14. 1. -165. 3. 52. -110.
      52. 28. -30. 28. -1. -1. 1. -30. -30. -30. -79. -139. -79. -12.
      -230. -12. -140. -114. -122. 28. -208. 28. 107. -87. 93. -3. 3.
      -3. -175. -119. -119. 34. -154. 84. 35. -5. 65. -3. 85. 25. -32.
      74. -36. -77. -143. -181. 205. -175. 149. -23. -49. -23. -167.
      -179. -107. 57. -71. 215. 25. 193. 49. -226. 30. 36. 70. 80. 14.
      152. 46. -48. -8. -4. -2. -304. -16. -10. 105. -39. -13. 69. -83.
      -31. -4. -140. -26. -54. -152. 14. -82. 38. 176. 261. 121. -93.
      -140. -66. -94. -159. -45. 115. 275. 73. 3. 33. 35. -41. -157. 35.
      33. 80. 64. -4. 74. 30. -30. -13. -3. -3. -327. -19. -13. 181. 57.
      89. 53. 161. 15. -127. 79. -97. -41. -19. -1. 187. 73. 93. 85. 83.
      -83. -165. 69. 69. -149. 33. -105. 245. -105. -33. 21. -109. 29.
      -212. -104. -88. 143. -125. 67. 74. -28. 30. -19. -1. -3. -293.
      43. 47. 257. 77. -13. 46. 42. -22. -118. 126. 106. -109. 165. -67.
      196. 14. -84. 38. -34. 36. -49. 49. 47. -145. 205. 109. 53. 155.
      -159. 8. -46. -42. -152. 80. 148. 99. 117. -111. 50. -48. -54.
      -10. -90. 12. -119. 49. 127. 125. 57. -119. 12. -74. -12. -29.
      -103. -17. -70. -14. 106. 55. 35. -57. 32. -64. -42. -2. -106. 0.
      -17. -87. 19. -51. -13. 55. -3. 73. 31. -2. 32. 2. 19. 65. 31. -1.
      99. 3. 0. 100. -2. 2. 92. -6. -24. 56. -30. 5. 31. 5. -49. 33. -3.
      47. 41. 11. -29. 25. -27. 5. 13. 15. 9. 39. 11. -17. 31. -19. -13.
      -5. -17. 24. -26. -4. 31. 11. 31. -14. -22. -64. 15. -73. 13. 5.
      -53. 7. -5. -47. -1. -2. 4. 52. 8. 54. -2. -71. 33. -19. 46. 2.
      -12. -43. 3. 13. 16. 12. -4. 8. -4. -12. -17. 3. 19. -16. 36. 14.
      13. 43. -7. 23. -29. -39. -22. -12. 56. 9. 25. -19. 29. 23. 17. 1.
      47. 7. 24. 28. -26. 3. -1. -3. -45. 41. 45. 17. 69. -17. -16. 66.
      14. 6. 74. -6. -2. 70. 2. 0. 70. -2. -2. 68. 0. 3. 65. -3. -9. 75.
      7. 16. 64. -18. -5. 51. 5. 23. 33. -23. 3. 5. -5. -2. 0. 0. 1. 1.
      1. 0. 2. 0. -1. 1. -1. -2. 0. 0. 0. 0. 0. 0. 0. 0. -2. 0. 0. -1.
      1. 1. -1. 1. -1. -1. -1. 1. -1. 1. 1. 0. 2. 0. -1. 1. -1. -1. 1.
      1. -2. 2. 0. 1. 1. -1. -1. -1. -1. -1. -1. 1. -2. 0. 0. 0. 0. 0.
      0. 0. 0. -1. 1. 1. -1. 1. -1. -1. 1. 1. -1. 1. -1. 0. 0. 0. 0. 0.
      0. -1. 1. 1. 0. 2. 0. -2. 2. 0. 0. 2. 0. -2. 2. 0. -1. 1. -1. -2.
      0. 0. 0. 0. 0. -1. -1. -1. 0. -2. 0. -1. -1. 1. -1. -1. -1. -2. 0.
      0. 1. 1. 1. -1. 1. -1. 0. 0. 0. -1. -1. -1. -2. -2. 0. 0. -2. 0.
      -2. -2. 0. 0. 0. 2. -3. 1. -1. 0. 0. 0. -1. 1. 1. -1. 1. -1. -1.
      -1. -1. -1. -1. 1. -1. 7. 1. 0. 6. -2. -1. 5. 1. -1. 5. -1. -1. 5.
      1. -2. 6. 0. 0. 6. 0. -2. 6. 0. 1. 5. -1. -3. 5. 1. 0. 6. 0. -1.
      5. -1. -1. 5. 1. -1. 7. 1. -1. 7. -1.</_>
    <_>
      1584. 1072. 624. 1584. 272. 720. 272. 464. 528. 640. 1664. 320.
      592. 1072. 272. 160. 384. 416. 272. 528. 48. 176. 336. 144. 416.
      352. 160. 12. 36. 12. 20. 28. 20. 1124. 116. 108. 16. 320. 96. 4.
      372. 44. 76. 276. 52. 560. 128. 352. 56. 80. 56. 56. 192. 56. 684.
      84. 332. 8. 328. 88. 24. 264. 24. 132. 284. 4. 52. 124. 156. 76.
      716. 36. 80. 648. 32. 240. 504. 112. 92. 388. 4. 12. 396. 12. 88.
      360. 48. 60. 148. 164. 36. 116. 4. 36. 100. 12. 108. 68. 20. 72.
      32. 16. 4. 4. 20. 16. 48. 24. 200. 48. 24. 24. 56. 8. 32. 56. 8.
      68. 44. 20. 48. 16. 8. 4. 20. 12. 28. 12. 20. 232. 64. 56. 24. 80.
      8. 36. 84. 4. 44. 76. 4. 24. 56. 16. 8. 24. 16. 44. 12. 4. 156.
      148. 132. 40. 56. 8. 28. 60. 4. 28. 44. 12. 4. 28. 4. 24. 24. 0.
      36. 28. 4. 40. 16. 16. 5. -7. -5. 6. -18. -6. -4. -16. 8. -3. -5.
      3. -8. 4. 6. 248. -26. -36. 125. -39. 23. -10. -8. 8. -47. 45. 45.
      9. 77. -13. 9. 49. -15. 3. 21. -13. -5. -1. -9. -123. -1. 9. -206.
      0. -8. 1. -1. 1. -1. -1. -1. 2. -4. -2. 0. -6. 0. 0. -4. 2. 196.
      -18. -16. 157. -25. 9. -3. -17. -1. -35. -51. -33. -8. -88. -4.
      32. -54. 38. -11. -17. -1. -18. -22. -4. -82. 6. 32. -142. 110.
      72. 2. -2. 0. -1. -1. 1. 0. 0. 0. 0. 0. 0. 0. -2. -2. 170. -14.
      -10. 170. -20. 4. -8. -20. -4. -196. -152. -128. 27. -241. 39.
      164. -108. 94. -31. -33. -19. -38. -68. -16. -16. -50. 34. -32.
      22. 38. 2. -2. 0. 1. -1. 1. 1. 1. 1. 0. 2. 0. 0. 4. 2. 111. -43.
      -49. 128. -138. -46. -17. -189. -5. -175. -45. 149. 35. 73. -31.
      125. -91. -133. -9. -183. 41. -8. -96. 46. 42. -26. 24. 6. -2. 0.
      12. 18. 10. 15. 41. 13. 15. 67. 13. 13. 93. 13. 16. 120. 14. 48.
      120. -14. 62. 86. -20. 1. 89. 23. -15. 123. 11. 4. 134. 0. 7. 149.
      15. 20. 152. -12. 19. 121. -19. 15. 51. -51. 5. -1. -1. 15. 165.
      -7. 18. 148. -10. 17. 127. -11. 16. 106. -10. 19. 85. -11. 25. 65.
      -9. 34. 48. -8. 16. 32. -8. -4. 24. 0. 3. 23. -1. 17. 17. -5. 6.
      10. -2. 1. 9. 1. -42. 4. -6. 2. -4. -2. 6. 26. -2. 5. 21. -3. 6.
      18. 0. 5. 17. -1. 7. 15. -1. 16. 14. 0. 25. 13. -1. 9. 13. 1. 0.
      18. 4. 2. 22. 0. 10. 20. -2. 4. 18. 0. 2. 18. 0. -56. 10. -8. -2.
      0. -2. 4. 10. 0. 4. 12. 2. 5. 13. -1. 4. 12. 0. 6. 12. 0. 14. 10.
      -2. 20. 4. -4. 9. -1. -1. 3. -3. -1. 2. -4. 0. 5. -7. -3. 3. -11.
      -1. 3. -11. 1. -59. -5. 5. -6. -2. -2. 3. 15. -1. 5. 13. -1. 3.
      11. -1. 3. 9. -1. 6. 8. 0. 11. 7. -1. 13. 3. -3. 7. -1. -1. 0. -4.
      -2. -3. -11. -5. -2. -20. -4. 0. -26. -2. 1. -31. -3. -42. -22.
      12. -6. -8. 2. 3. 7. 1. 3. 7. -1. 2. 6. 0. 3. 7. 1. 5. 7. -1. 8.
      4. -2. 10. 2. 0. 5. 1. -1. 0. 2. 2. -4. 8. 4. -5. 13. 1. -7. 9.
      -5. -5. 1. -3. -30. -2. 0. -7. -5. -3. 3. 3. -1. 2. 2. 0. 3. 3. 1.
      5. 5. 1. 4. 6. 0. 7. 7. 1. 8. 6. -2. 5. 5. 1. 3. 7. 1. 1. 9. 1.
      -2. 12. 2. -7. 19. 5. -10. 22. -2. -40. 10. -10. -52. -42. -42. 3.
      11. 1. 3. 13. 1. 3. 13. -1. 5. 11. -1. 4. 10. 0. 8. 10. 0. 7. 11.
      1. 5. 11. -1. 2. 8. -2. 0. 4. -2. -2. 0. -2. -5. -5. -3. -11. -7.
      1. -26. 18. 24. -48. 88. 46. 6. 14. 2. 3. 15. -1. 3. 15. 1. 4. 16.
      0. 3. 15. -1. 6. 12. -2. 5. 7. -3. 2. 2. -2. -2. -2. -2. -4. -6.
      -2. -4. -8. 0. -5. -5. 3. -5. 3. 5. -3. 7. -1. -2. 6. 0. 7. 5. -1.
      3. 5. 1. 4. 6. 0. 4. 6. 0. 4. 8. 2. 2. 8. -2. 2. 6. 0. -2. 4. -2.
      -4. 2. 0. -6. 2. 0. -3. 3. 1. -3. 3. -1. -3. -1. -3. -5. -5. -1.
      -4. -8. -2. 4. 0. -2. 6. 0. 2. 4. 2. 0. 2. 0. -2. 5. -3. -1. 1.
      -3. 1. 2. -2. 0. -1. 1. 3. -1. 7. 3. -3. 13. 3. -3. 15. -1. -4.
      14. 0. -6. 14. 0. -7. 13. -1. -7. 11. -1.</_>
    <_>
      272. 48. 336. 944. 880. 1168. 624. 1712. 336. 400. 336. 464. 32.
      128. 256. 1136. 560. 176. 528. 272. 336. 192. 512. 96. 2304. 1408.
      992. 556. 156. 188. 44. 36. 68. 352. 256. 152. 188. 268. 140. 312.
      40. 168. 192. 32. 176. 540. 20. 124. 308. 44. 60. 16. 112. 96. 44.
      52. 156. 260. 172. 68. 368. 352. 112. 124. 356. 108. 260. 92. 156.
      156. 52. 92. 172. 236. 92. 156. 284. 44. 8. 40. 200. 56. 360. 200.
      156. 636. 76. 124. 484. 228. 96. 48. 32. 44. 204. 220. 32. 256.
      168. 48. 72. 160. 100. 276. 44. 104. 136. 184. 144. 256. 208. 20.
      252. 148. 180. 396. 4. 92. 164. 228. 16. 192. 128. 276. 12. 332.
      340. 972. 628. 300. 1364. 236. 0. 296. 168. 112. 392. 72. 208.
      208. 112. 124. 76. 20. 304. 360. 304. 1092. 540. 124. 32. 152.
      568. 44. 308. 124. 8. 480. 48. 60. 564. 36. 20. 684. 84. 144. 912.
      144. 780. 620. 436. 48. 464. 648. 31. 153. 25. 147. 113. -65. 46.
      18. -30. -19. -7. 5. -19. 7. 9. -100. 20. 4. -32. 8. -16. 27. -5.
      3. -44. 4. 6. -10. -16. -26. -10. -40. 2. -113. -17. 21. 50. 12.
      8. 129. 25. 5. 26. 70. 40. 91. 5. 35. 60. 18. -22. 6. -14. -10. 9.
      -1. 23. -7. 25. 3. -70. 54. 26. -71. 57. -23. 5. 9. -25. -20. 2.
      18. -50. 6. -14. -34. -34. -26. -57. -25. 35. 57. 9. -1. 103. -23.
      -31. 81. -39. 15. 114. 12. -12. 40. 2. 2. -12. -4. -8. 30. -14.
      -2. 8. -4. 12. -24. 28. 20. -61. 81. 33. -43. 91. -23. -14. 56.
      -12. -67. 41. -3. -94. 4. -34. 11. 3. 33. 62. 42. 6. 43. 19. -29.
      62. -44. -34. 110. 8. 8. 44. 18. 2. -28. 12. -8. 10. -14. -18. 31.
      -21. 11. 3. -3. 7. -21. 11. 7. -47. 37. 19. -29. 53. -3. -58. 62.
      12. -126. 76. 2. 7. 41. -37. 79. 15. 11. 11. 23. -3. 7. -1. -21.
      119. 23. 1. 26. 4. -20. -47. -27. -11. -18. -48. -10. 40. -60. -2.
      16. -56. 6. -12. -48. 2. -26. -44. 2. -32. -42. 0. -7. -3. 39.
      -83. 77. 41. -42. 106. -12. 49. 53. -41. 10. 14. 2. -18. 12. -4.
      109. -3. -11. -16. -36. -22. -72. -72. -14. -16. -74. 12. 22. -78.
      -16. 55. -61. 33. 25. 7. 35. -19. 47. 5. -23. 61. 9. 34. 72. 2.
      -16. 100. 26. -38. 142. 16. -28. 122. -36. -30. 44. -42. -10. 14.
      12. 90. 0. -8. -2. 28. 36. -50. 100. 36. -29. 111. -25. -26. 54.
      -32. 36. -30. -52. 55. -87. -5. 28. -50. 42. -8. -2. 6. 34. 2. -2.
      13. 3. 3. -12. 16. 10. -31. 59. 33. -49. 115. 23. -45. 91. -47.
      65. -5. -17. 18. -38. -16. 13. -27. 27. -13. 41. 41. -28. 112. 30.
      -24. 134. -8. 4. 80. -46. 29. -7. -41. 11. -35. 13. 39. -15. 7.
      21. -3. 5. -4. 0. -2. 2. -2. 0. -13. 11. 13. -47. 69. 45. 40. -26.
      -8. -8. -44. -10. 39. -55. -1. 26. -58. -2. -5. -67. -7. -20. -62.
      12. -23. -31. 19. -8. -8. 4. -17. -45. -41. -1. -133. -47. 46.
      -160. 20. 39. -95. 45. 23. -29. 21. 5. -3. 5. -1. 3. 1. 24. -20.
      -8. -36. -46. -18. 13. -89. -25. 25. -113. 1. 42. -58. 54. 6. 10.
      14. -7. 21. -3. 13. 35. 17. -20. 90. 38. -87. 89. -39. -97. -113.
      -163. 34. -326. -50. 73. -347. 29. 77. -251. 67. 65. -119. 65. 33.
      13. 17. -56. 28. -2. -8. 30. 4. 17. 25. -9. 67. -13. -29. 39. -23.
      19. 16. 22. 26. 21. 39. -9. 15. 27. -3. -63. 87. 63. -193. 217.
      67. -152. 148. -136. 13. -77. -89. 74. -236. -70. 107. -329. -23.
      76. 24. 26. -33. 75. 25. 0. 104. 4. 15. 115. 7. 26. 110. -12. 34.
      74. -24. 24. 32. -18. 10. 12. -2. 7. 5. -5. 0. 0. 0. -66. 60. 60.
      -234. 174. 54. -171. 133. -95. -17. 17. -21. 75. -13. -9. 88. 2.
      -14. -4. -8. 4. 2. -6. -2. 6. -24. -16. 7. -47. -7. 14. -50. 4.
      15. -37. 9. 14. -22. 6. 7. -11. 5. 3. -3. 3. -10. -4. -4. -170. 2.
      10. -259. 19. 7. -44. 20. -6. 46. -6. -20. 65. -29. -9. -21. -59.
      -21. -5. -85. -5. 5. -75. 15. -3. -63. -3. 9. -75. -9. 20. -88.
      -4. 18. -94. -2. 7. -101. -5. -7. -119. -13. -45. -163. -31. -160.
      -194. 0. -150. -92. 102. -14. 46. 36. 49. 105. 23. 35. -35. -21.
      -22. -36. 20. -34. -40. -24. 2. -82. -18. 3. -91. 9. 3. -79. 3. 6.
      -86. -10. -13. -125. -29. -16. -172. -18. -19. -189. 1. -90. -202.
      -14. -100. -156. 60. 121. 73. 169. 96. 316. 74. 35. 353. -37.</_>
    <_>
      1264. 144. 240. 144. 432. 48. 928. 224. 256. 512. 1536. 2016. 64.
      448. 32. 1008. 240. 176. 1248. 2176. 1280. 48. 816. 80. 512. 416.
      320. 24. 8. 16. 248. 256. 232. 12. 460. 28. 16. 408. 24. 44. 324.
      60. 124. 124. 140. 52. 4. 12. 28. 20. 12. 524. 12. 44. 24. 72. 16.
      28. 100. 12. 96. 120. 8. 348. 44. 84. 8. 8. 32. 20. 12. 4. 360.
      216. 208. 0. 416. 8. 4. 388. 20. 44. 324. 44. 292. 140. 140. 24.
      0. 0. 88. 608. 112. 52. 396. 100. 8. 280. 16. 8. 248. 16. 40. 192.
      40. 228. 76. 76. 16. 8. 8. 236. 564. 36. 512. 64. 464. 4. 372. 28.
      8. 328. 16. 44. 276. 36. 192. 128. 112. 16. 8. 8. 128. 1128. 144.
      488. 496. 488. 8. 32. 24. 16. 64. 8. 8. 72. 0. 56. 48. 24. 24. 24.
      0. 92. 36. 76. 36. 4. 36. 4. 12. 20. 32. 32. 24. 4. 60. 4. 56. 40.
      24. 16. 8. 8. 1. -1. -1. 1. -1. 1. 2. 0. 0. 2. 0. 0. 1. -1. -1. 2.
      -2. 0. 1. -1. 1. 1. -1. -1. 3. -1. 1. 2. 0. 0. 1. 1. 1. 2. 2. 0.
      2. 2. 0. 1. 1. -1. -35. 5. 5. 2. -2. 2. 1. -1. -1. 5. 1. 3. 18.
      20. 16. -4. 32. -4. -2. 24. -4. -4. 14. -6. -4. 4. -4. 0. -4. -4.
      0. -10. -2. 2. -12. 0. 7. -7. 5. 2. -2. 0. 0. -2. 0. -31. -3. -1.
      4. 0. 0. 0. 0. 0. 17. 9. 9. 114. 98. 80. -5. 181. 3. -4. 186. 2.
      -6. 192. 4. -6. 198. 2. -3. 201. 1. 0. 204. 2. -52. 152. -54. -43.
      43. -55. 7. -7. 5. 1. -1. 1. -30. 2. 2. 4. 0. 0. 1. 1. 1. 13. -11.
      -13. 203. -15. 9. 1. -3. 3. -2. 0. 0. -2. 0. 0. -3. 1. 1. -1. 3.
      1. 2. 4. 0. -94. 16. 12. -118. 8. -20. 17. -7. 5. 2. -2. 0. -20.
      6. 8. 5. -3. 1. 2. -2. 0. -3. -5. -3. 143. -77. -69. 4. -146. 0.
      -2. -146. 0. -6. -150. -4. -1. -153. 1. 1. -151. 1. 1. -151. -1.
      -50. -120. 32. -91. -41. 47. 18. 2. -4. 2. -2. 0. -9. 1. 3. 7. -1.
      1. 2. 0. 0. -5. 1. 1. 56. -16. -18. 6. -32. 2. -2. -30. 0. -8.
      -28. 2. 2. -24. 2. 4. -20. 2. 3. -15. 3. -15. -9. 3. -41. -3. 3.
      13. -1. -1. 2. -2. 0. -4. 0. 2. 11. -3. 3. 2. 0. 0. -5. -1. -1.
      36. -4. -2. 11. -3. 3. -1. 1. 1. -4. 4. 2. 4. 6. 0. 5. 5. -1. 3.
      1. -3. -9. 1. 3. -39. 3. -1. 10. 0. -2. 2. -2. 0. -2. -2. 0. 16.
      38. 2. 6. 44. 4. -28. 26. -22. 37. 7. 3. 32. 28. 18. -16. 30. -16.
      -8. 8. -6. 0. -2. -4. 26. 16. 22. 15. 53. 15. -27. 47. -21. -53.
      13. -13. 7. -1. -1. 2. -2. 0. -3. -3. -1. 8. 286. -10. 15. 281. 5.
      -140. 196. -90. 5. 71. -35. 106. 92. 56. -51. 129. -19. -15. 109.
      -1. -4. 108. 0. 22. 82. -26. -5. 21. -35. -53. -19. -5. -53. -11.
      13. 5. 1. -1. 1. -1. -1. -3. -1. 1. 1. 5. 3. 17. 5. -3. -208. 24.
      22. -91. -15. -61. 97. -141. -65. -39. -175. 31. -8. -136. 8. 0.
      -124. 4. 1. -115. 5. -24. -94. 16. -25. -45. 33. -36. -8. 4. 5.
      -3. 1. 1. -1. 1. 0. 2. 2. 2. 4. -2. 8. -4. -6. -154. 22. 32. -185.
      21. -33. 34. -10. 2. -10. -10. -2. 4. -8. 4. 2. -6. -2. 3. -11.
      -3. -4. -10. 4. 4. -10. -4. -27. -9. 5. 7. -3. 1. 1. -3. -1. 3.
      -3. 1. 4. -288. 4. -3. -289. -5. -70. -242. 52. -118. -90. 100.
      27. 1. -9. -12. -8. 0. 7. -9. -1. 1. -9. 1. 1. -7. 1. -1. -7. -1.
      0. -8. 0. -18. -4. 4. 6. -2. -2. 2. -2. 2. 2. -2. -2. 23. -63. 15.
      -3. -43. 5. -9. -29. 9. -10. -12. 8. 29. 7. 11. -19. 11. -7. 0.
      -2. -6. 2. -8. 0. 0. -10. -2. -2. -12. 0. 0. -12. 0. -10. -8. 4.
      4. -4. 0. 5. -3. 1. 0. -2. 0. 34. -4. -4. 5. -5. 3. 0. -2. 0. -3.
      -3. -1. 39. -5. -1. -15. 5. 11. -1. 21. 5. 6. 30. 4. -6. 30. -4.
      -8. 20. -6. 4. 18. 4. -10. 18. -4. -3. 7. -7. 6. 0. 0. 1. 1. 1. 4.
      14. -26. 56. 36. 48. -33. 51. -33. -11. 11. -7. 20. -14. -18. -5.
      -33. -1. 3. -35. -1. 5. -41. -5. 13. -23. 23. -4. 10. 10. -3. 9.
      -11. -14. -2. 0. -10. -2. 0. 6. -2. 0. 2. -2. 0.</_>
    <_>
      160. 64. 32. 1520. 432. 336. 416. 384. 1152. 96. 192. 32. 736.
      672. 448. 672. 1184. 64. 288. 288. 352. 176. 176. 112. 784. 112.
      176. 16. 8. 8. 24. 24. 8. 28. 52. 20. 272. 112. 40. 360. 72. 224.
      480. 280. 16. 180. 124. 140. 12. 20. 4. 12. 20. 4. 12. 20. 4. 156.
      52. 76. 592. 120. 8. 184. 200. 312. 412. 420. 92. 12. 44. 4. 16.
      40. 8. 16. 32. 0. 48. 64. 32. 472. 224. 128. 116. 364. 12. 328.
      200. 176. 4. 20. 4. 16. 32. 8. 16. 40. 0. 12. 44. 4. 296. 96. 48.
      76. 172. 28. 112. 160. 40. 0. 0. 0. 4. 4. 4. 16. 8. 0. 8. 8. 0.
      124. 132. 124. 24. 280. 24. 124. 108. 196. 8. 8. 8. 0. 0. 0. 12.
      4. 4. 12. 4. 4. 0. 0. 0. 0. 0. 0. 344. 24. 24. 272. 304. 256. 24.
      24. 24. 4. 4. 4. 12. 12. 4. 8. 8. 8. 12. 12. 12. 436. 92. 68. 0.
      4. 0. 4. 4. 0. 4. 4. 0. 5. -1. -5. 1. -9. -3. 2. -14. -2. 18. -20.
      -4. 42. -24. 0. 56. -6. 18. 29. 35. 23. -47. 65. 7. -82. 50. -22.
      -20. 14. -14. 0. 0. 0. -1. 1. 1. -1. 3. -1. 0. -2. -4. 2. -8. -2.
      0. -10. 0. 0. -8. 2. 1. -5. 1. 9. -9. -5. 32. -24. -10. 80. -28.
      6. 65. -9. 13. -21. 23. 19. -103. 43. 1. -57. 21. -23. 0. -2. 0.
      0. -2. 0. 0. -10. 2. 0. -4. 4. 2. 2. 2. 3. 7. 3. 1. 9. -1. 2. 8.
      0. 1. 5. -3. 14. -6. -8. 85. -15. -1. 94. 0. 16. 20. 38. 22. -78.
      84. 24. -112. 76. -32. -23. 21. -23. -2. -4. -2. 3. 5. 1. 4. 6. 0.
      3. 5. -1. 4. 2. -2. 0. 0. 0. 1. -1. -1. 0. 0. 2. 4. 0. -2. 77. -9.
      -7. 114. -12. 4. 47. -3. 5. -20. 36. 34. -92. 122. 52. -95. 125.
      -49. -41. 39. -37. 3. 9. -1. 2. 6. -2. 1. 3. -1. 1. 1. -1. 0. 0.
      0. 1. 1. 1. 4. 4. 2. 1. 5. -1. 38. -28. -32. 98. -80. -20. 63.
      -89. 11. 7. -85. -7. -11. -63. 29. -72. 38. 72. -100. 88. -22. 2.
      -12. 0. 0. -12. 0. 1. -11. 1. 1. -9. 1. 1. -7. 1. 4. -4. 2. 4. -4.
      -2. -1. -7. -1. 10. -4. 4. 56. -22. -22. 60. -58. -14. 2. -70. 2.
      -3. -89. -21. 17. -93. 17. -65. -19. 57. 1. -5. -1. 0. -6. 0. 3.
      -5. 1. 2. -4. 0. 2. -4. 0. 3. -7. -3. 1. -11. -1. -1. -11. 1. 10.
      -14. -4. 49. -3. 15. 65. 31. 19. 9. 55. 5. -34. 50. -10. -25. -19.
      -59. 9. -61. 17. 0. 0. 0. 0. 0. 0. 1. -3. -3. 2. -6. 0. 2. -6. 0.
      1. -5. 1. 0. -4. 0. 1. -3. 1. 3. -5. -3. 49. -23. -15. 95. -27.
      11. 43. 13. 29. -114. -28. -70. -55. -69. 29. 60. -6. 34. 0. -2.
      0. 0. -2. 0. -1. -1. 1. 1. -1. -1. 2. -2. 0. 2. -2. 0. 1. -1. 1.
      1. -1. -1. 1. -1. 1. 19. -15. -15. 87. -49. -19. 30. -110. -42.
      -123. -91. 61. -12. -16. 14. 110. 14. 16. 0. 0. 0. 1. 1. 1. -1. 1.
      -1. 1. 1. 1. 1. 1. -1. 1. -1. -1. 2. -2. 0. 1. -1. 1. 1. -1. -1.
      3. -3. -1. 34. -38. -34. -6. -66. 6. -34. -32. 28. 4. -2. 2. 134.
      8. 8. 0. 0. 0. 1. -1. -1. -1. -1. 1. 1. -1. -1. 0. -2. 0. 1. -1.
      1. 2. 0. 0. 2. 0. 0. 0. 0. 0. 1. -1. -1. -1. -3. -1. 1. -3. 1. -3.
      1. 3. 16. 14. 10. 132. 14. -10. -1. 1. -1. 0. 0. 0. 0. 0. 0. 0. 0.
      0. 1. 1. 1. 1. 1. -1. 1. -1. -1. 3. -1. 1. 0. 0. 0. 0. 0. 0. -1.
      1. 1. 0. 0. -2. 1. -1. 1. 36. 10. 10. 112. 10. -10. -6. 4. -4. 0.
      0. 0. 0. 0. 0. 1. 1. 1. 0. 0. -2. 0. -2. 0. 1. -1. 1. 3. -1. -1.
      1. -1. 1. 0. 0. 0. 0. 0. 0. 0. 2. 2. 0. 2. -2. 44. -2. -2. 97. -9.
      -5. -30. 36. -20. -8. 8. -8. 0. 0. 0. 1. -1. -1. -1. -1. 1. 0. 0.
      0. 2. 0. 0. 1. -1. -1. 2. -2. 0. 1. -1. 1. 1. 1. 1. 2. 2. 0. 0. 4.
      2. 50. 14. 8. 91. 21. -1. -60. 204. -10. -91. 119. -75. -22. 22.
      -22. 0. 0. 0. 0. 0. 0. 0. 0. 0. 1. -1. -1. 1. -1. 1. 1. -1. -1. 2.
      -2. 0. 2. -2. 0. 2. -2. 0. 5. 1. 3. 73. 19. 15. 102. 46. 12.</_>
    <_>
      128. 2432. 864. 352. 320. 1888. 1696. 1248. 960. 624. 2064. 368.
      1184. 640. 1056. 528. 624. 208. 80. 16. 336. 64. 544. 192. 320.
      736. 0. 104. 256. 120. 92. 468. 92. 72. 648. 88. 304. 472. 264.
      92. 236. 444. 532. 540. 140. 348. 228. 172. 68. 1196. 156. 12.
      868. 172. 44. 492. 204. 312. 64. 352. 328. 392. 24. 236. 212. 156.
      108. 12. 68. 88. 1008. 0. 100. 948. 60. 196. 836. 52. 368. 488.
      296. 196. 84. 108. 64. 40. 16. 44. 52. 4. 60. 68. 28. 44. 44. 4.
      92. 4. 52. 68. 60. 4. 56. 96. 32. 60. 116. 12. 28. 124. 20. 36.
      60. 4. 44. 60. 4. 16. 32. 24. 16. 40. 48. 12. 100. 12. 72. 112. 0.
      8. 112. 0. 36. 52. 4. 12. 4. 52. 40. 88. 32. 44. 132. 12. 32. 112.
      32. 48. 104. 24. 28. 108. 20. 24. 8. 8. 72. 24. 8. 76. 36. 4. 64.
      48. 8. 68. 52. 4. 24. 48. 0. 44. 52. 4. 4. -4. 0. 1. -3. 1. 0. -2.
      0. 1. -1. 1. -1. 1. 1. 2. 0. -2. 5. -5. -3. -30. 2. 10. -229. 51.
      39. -54. 120. 30. 71. 181. 31. 89. 215. 3. 86. 188. -30. 63. 113.
      -45. 49. 43. -25. 6. 2. 2. 2. 4. 0. 1. 5. 1. 2. 6. 0. -5. 1. -5.
      -8. -12. -8. -9. -31. -11. -23. -45. -3. -111. 31. 79. -11. 123.
      13. 60. 94. -42. 63. 23. -29. 49. -13. -7. 27. -11. 9. 19. -7. -5.
      -9. -67. -17. -39. -125. -41. -27. -195. -29. -27. -253. -29. -12.
      -284. -2. -21. -291. -5. -26. -302. -6. -14. -296. 12. 36. -216.
      68. 48. -102. 46. 45. -29. 27. 61. 25. 27. 29. 39. -13. 23. 13.
      -13. 10. -4. -4. -10. -310. 16. -33. -247. 47. -23. -167. 33. -26.
      -104. 30. -8. -68. 6. -19. -55. 7. -8. -24. 24. 85. 87. 87. 83.
      153. -21. 77. 115. -17. 62. 88. -10. 52. 42. -36. 8. -2. -8. 8.
      -12. -2. 6. -14. 0. 2. 12. -4. 11. 5. -3. 17. 9. 7. 24. 36. 20.
      17. 75. 19. 29. 135. 41. 50. 210. 34. 117. 189. -55. 46. 118. -16.
      40. 82. -20. 27. 37. -25. 5. 1. -11. 3. -7. 3. 4. -6. -2. 7. -7.
      1. 14. 230. 16. 13. 251. 5. 17. 249. -7. 21. 219. -23. 25. 185.
      -11. 46. 150. -24. 50. 92. -34. 39. 35. -23. 18. 0. -12. 15. -17.
      -5. 4. -20. 2. -1. -13. 5. 7. -7. 1. 4. -4. 2. 6. -4. -2. 16. 28.
      -14. 11. 7. -7. 7. -3. -3. 0. -4. 2. 16. 0. 2. 21. 1. -1. 12. -4.
      -4. 8. -16. -8. 7. -23. 1. 16. -16. 6. 5. -11. -1. 6. -10. 2. 9.
      -7. 1. 5. -7. -1. 2. -10. -2. 5. 9. 3. 3. 11. -1. 3. 9. -1. 3. 9.
      1. 15. 7. -3. 15. -1. -5. 2. -12. -6. 7. -11. 7. 9. -3. 1. 17. -7.
      -5. 3. -13. -1. 8. -14. 0. 9. -15. -1. 2. -18. -2. -2. -22. -2. 5.
      5. -3. 4. 4. 2. 3. 7. 1. 7. 11. 3. 8. 10. -4. 6. 2. -4. -2. 0. 2.
      14. 2. 0. 7. -1. -3. 3. -13. -9. 0. -24. -2. 14. -20. 6. 7. -15.
      -1. -2. -18. -2. -2. -18. 2. 3. 9. 1. 4. 8. -2. 4. 6. 0. 10. 6. 0.
      2. 4. -2. 1. 1. -1. 0. 0. 0. 13. -1. -1. -3. -9. -7. -7. -17. -1.
      3. -13. 5. 19. -9. -1. 2. -14. -4. -3. -17. 1. 2. -14. 2. 5. 5. 1.
      4. 8. 2. 5. 11. 1. 10. 12. 0. -4. 8. -4. -1. 3. -1. 0. 2. 0. -2.
      -12. -14. -9. -25. 1. -2. -18. 6. 10. -10. 2. 15. -11. -3. -1.
      -13. 1. -1. -11. 1. 6. -8. 2. 6. 8. 0. 6. 8. 0. 7. 9. 1. 2. 2. -8.
      -11. -9. -3. -4. -14. -2. -1. -17. -1. -19. -21. -3. -4. -20. 4.
      7. -13. 3. 12. -10. 0. 7. -15. -5. 0. -20. 0. 4. -16. 4. 7. -13.
      -1. 5. 5. -1. 4. 2. -2. 4. -4. -4. -11. -13. -5. -14. -18. 0. -8.
      -20. -2. -5. -25. -3. -11. -17. 11. -1. -7. -1. 10. -8. 0. 10.
      -10. -2. 2. -12. 0. 1. -11. 1. 9. -9. 1. 5. -9. -1. 3. -3. -1. 2.
      -4. 0. -2. -6. -2. -16. -8. 0. -11. -5. 3. -10. -2. 0. -10. -4.
      -2. -4. -10. -4. 2. -10. 4. 12. -4. 2. 6. -4. -2. 3. -5. 1. 2. -4.
      0. 9. -5. -1. 2. -8. -2. 3. 3. 1. 3. 5. 1. -2. 8. 2. -16. 10. 0.
      -7. 11. 1. -10. 12. 0. -13. 11. -1. -15. 3. -7. 8. -2. 2. 12. -2.
      -2. 4. -4. 0. 3. -5. -1. 3. -5. 1. 7. -5. -1. 1. -5. 1.</_>
    <_>
      1136. 720. 1360. 144. 1808. 272. 480. 1536. 0. 224. 768. 448. 112.
      624. 304. 304. 1104. 176. 560. 176. 112. 192. 288. 0. 64. 352. 64.
      48. 528. 64. 472. 408. 184. 256. 32. 192. 196. 12. 172. 80. 40.
      144. 88. 144. 40. 20. 132. 52. 60. 68. 52. 100. 308. 188. 68. 492.
      4. 28. 436. 52. 12. 308. 76. 76. 204. 28. 36. 172. 4. 64. 72. 72.
      52. 108. 36. 56. 88. 16. 52. 132. 28. 48. 200. 40. 88. 256. 16.
      16. 296. 24. 160. 224. 24. 84. 148. 100. 60. 28. 20. 8. 40. 32.
      24. 104. 32. 64. 144. 8. 4. 140. 12. 88. 96. 96. 180. 4. 4. 76.
      12. 4. 60. 36. 20. 52. 52. 4. 48. 56. 8. 16. 64. 0. 252. 44. 260.
      280. 112. 104. 76. 4. 4. 108. 28. 28. 36. 44. 12. 32. 40. 8. 16.
      48. 0. 624. 16. 112. 364. 148. 20. 124. 124. 44. 100. 44. 36. 24.
      8. 0. 16. 16. 8. 4. 44. 20. -8. 258. 6. -8. 258. -6. 17. 219. -33.
      82. 142. -44. 144. 68. -30. 51. 29. -9. -21. 41. 21. -94. 156. 94.
      24. 226. -24. 25. 175. -27. 39. 105. -43. 1. 57. -5. 25. 23. -29.
      -16. 0. 6. -31. 23. 17. 0. -12. 2. -6. -2. 8. 12. 34. 28. 67. 91.
      29. 64. 70. -50. 17. -5. -25. -2. -32. -2. 1. -33. 1. -7. -39. -7.
      -12. -56. -10. -4. -66. 0. 5. -57. 9. -9. -53. -5. 2. -46. 12. 2.
      -18. 16. 3. -1. 1. 2. 0. 0. 48. 8. 8. 49. -31. -47. 0. -92. -14.
      12. -86. 20. 6. -56. 10. -5. -53. -7. -9. -55. 5. -6. -34. 16.
      -10. -24. -6. 21. -23. 7. -8. -10. 6. 4. -14. -10. 16. -26. -2. 4.
      -4. 0. 16. 10. 14. 12. -20. -44. -13. -79. -15. 12. -68. 26. 14.
      -60. -18. 17. -77. 1. -2. -66. 10. 1. -51. 5. 16. -40. 6. -13.
      -31. 3. 26. -30. -2. 8. -22. 10. -3. -9. 3. 8. -12. -6. 6. -2. 2.
      21. -9. -9. -41. -27. -9. -10. -18. 18. 16. -22. -22. 4. -36. 8.
      13. -33. -5. 7. -39. -1. 13. -33. 7. 19. -29. -3. -7. -29. 3. 16.
      -34. -8. 27. -33. 9. -4. -28. -4. 0. -34. -2. 12. 0. 4. -2. -10.
      -14. -40. -14. 10. 11. -1. 3. -10. -2. -4. 8. -10. -4. 13. -9. 5.
      2. -8. -4. 17. -15. -3. 13. -21. -3. -11. -31. -7. 8. -38. 0. 36.
      -38. 0. -12. -42. -4. -2. -46. 0. 21. 3. 5. -33. -9. -17. -22.
      -18. 8. 12. -12. -2. -9. -9. 5. 6. -2. 2. 16. -2. -2. -6. -8. -4.
      8. -18. -6. 5. -29. -5. -16. -32. 2. 12. -26. 4. 30. -28. -6. -18.
      -36. -2. 1. -35. 3. 0. -32. -26. -55. -63. -5. 15. -39. 29. 10.
      -10. 0. -1. -7. 3. 9. -3. 1. 15. -1. 1. -12. -2. -2. 0. -6. -2.
      -5. -13. -5. -10. -14. 4. 16. -10. 0. 17. -17. -7. -12. -16. 8. 0.
      -12. -4. -56. -38. -30. -54. -62. 6. 71. -29. 27. 9. -3. -1. 3.
      -3. 1. 9. -3. -1. 19. -1. 3. -16. 0. -2. -5. -5. -3. -9. -7. 1.
      -5. -5. 1. 14. -6. -2. 6. -12. -4. 2. -10. 6. -5. -5. -1. -64.
      -42. 22. -34. -6. 14. 101. 11. 3. 3. 9. -5. 0. 0. -4. 8. -4. 0.
      24. -2. 2. -21. -3. -3. -9. -7. -1. -10. -10. -2. -1. -9. 3. 11.
      -7. -1. 2. -8. 0. 5. -11. -3. -1. -9. 5. -68. 26. -26. -15. 5. 5.
      101. 7. -3. -4. 2. -2. -5. -1. -1. 8. -2. 0. 26. -2. 0. -28. -6.
      -4. -11. -11. -1. -8. -8. 4. 3. -3. 1. 8. -4. -2. 3. -5. 1. 2. -4.
      0. 2. -6. -2. -121. 47. -27. -32. -2. -22. 86. -36. -12. 24. -18.
      30. -16. 2. -10. 13. -3. 5. 23. -1. -3. -34. -6. -2. -9. -5. 3.
      -4. -2. 0. 3. -3. -1. 4. -6. -2. 4. -8. 0. 3. -7. 1. 0. -6. 0.
      -123. 31. 25. -85. 25. -31. 39. -41. -35. 90. -40. 36. -27. -5.
      -1. 29. 5. 11. 7. 3. -13. -36. -10. 0. -3. -7. 3. -4. -4. 0. 1.
      -5. -1. 2. -6. 0. 4. -6. 0. 4. -6. 0. -1. -7. -1. -87. 13. 11.
      -129. 11. -13. -17. -23. -21. 103. -67. -23. 36. -26. 64. 31. 29.
      -9. -22. 4. -16. -28. -4. 8. -5. -1. -5. -3. -5. 1. 0. -4. 0. 1.
      -5. -1. 4. -6. 0. 2. -8. -2. -3. -11. -1. -100. -8. -24. -125.
      -15. 17. -19. 21. 19. 79. 39. -1. 35. -27. -65. 24. -90. 2. -1.
      -51. 37. -14. -8. 6. -2. 6. 8. -5. 11. -3. 1. 9. 1. 0. 10. 0. 3.
      9. -1. -6. 2. -6. -6. -6. -2.</_>
    <_>
      3008. 416. 544. 176. 304. 656. 1456. 1584. 1232. 1504. 2240. 960.
      528. 976. 304. 464. 432. 240. 416. 512. 128. 128. 288. 96. 608.
      288. 96. 24. 24. 24. 636. 68. 68. 532. 44. 180. 392. 312. 88. 12.
      404. 4. 512. 112. 296. 324. 108. 76. 0. 48. 0. 500. 116. 68. 744.
      152. 32. 284. 100. 20. 116. 20. 100. 584. 344. 224. 172. 644. 76.
      60. 188. 60. 320. 136. 112. 536. 216. 240. 144. 336. 120. 168.
      264. 48. 128. 80. 232. 32. 216. 64. 88. 648. 32. 144. 552. 64.
      220. 412. 76. 4. 364. 28. 76. 348. 44. 60. 140. 164. 24. 32. 8.
      40. 112. 16. 64. 80. 16. 108. 28. 36. 12. 28. 20. 8. 88. 40. 184.
      88. 40. 8. 56. 8. 28. 60. 4. 48. 64. 0. 64. 56. 8. 0. 56. 8. 44.
      68. 4. 172. 44. 28. 24. 8. 24. 36. 100. 4. 36. 92. 12. 36. 60. 20.
      4. 28. 12. 24. 32. 16. 100. 148. 100. 28. 268. 20. -5. -7. -5. -8.
      -8. 4. -2. -4. 0. -9. -17. -13. 369. -41. -11. 28. -32. 20. -247.
      -9. 3. -1. -27. -21. 6. -38. 10. 2. -26. 2. -4. -22. 2. -61. -19.
      1. 20. -22. -4. -107. -15. 11. -7. -3. 1. 12. 2. 22. -10. 18. -6.
      -8. 6. -6. -19. 3. 3. 354. 2. -4. 45. -5. -3. -215. 21. 29. -41.
      31. -19. 21. 17. 5. 7. 25. 3. 3. 33. 5. -84. 14. -24. -26. -52.
      -42. -51. -49. 45. -6. -4. 0. 18. -20. -16. -7. -27. 9. -6. -10.
      8. -12. 2. 4. 314. -30. -36. 67. -41. 25. -94. 76. 92. -32. 196.
      28. 10. 208. -16. -1. 181. -11. -4. 158. -12. -145. 109. -37.
      -107. 33. -39. -6. -6. 0. -7. -7. -1. 1. -1. -1. 1. -3. -1. 1. -5.
      -1. -4. -2. 4. 253. -23. -25. 107. -33. 15. -2. -18. 0. -12. -26.
      -8. 0. -28. 6. -10. -20. 2. -20. -22. -4. -137. 19. 45. -126. 84.
      20. -6. 104. 0. 2. 114. 10. 0. -2. 0. 0. -2. 0. 0. -2. 0. -1. -3.
      -1. 215. -17. -13. 128. -24. 6. -82. -98. -80. -98. -256. -78.
      145. -195. 139. 2. -46. 10. -39. -51. -15. -46. -20. 46. -50. 82.
      56. -2. 142. 4. 6. 140. -6. 1. -1. 1. 1. 1. 1. 1. 3. 1. -1. 5. 1.
      140. -56. -62. 99. -153. -35. -92. -118. 70. -91. 37. 85. 143.
      -19. -141. 13. -159. 1. -7. -111. 47. 31. -33. 31. 7. -1. 1. 2. 0.
      0. 2. 2. 2. 14. 64. 12. 16. 90. 14. 15. 117. 13. 16. 146. 16. 59.
      143. -19. 48. 108. -16. -10. 104. 12. -5. 117. 1. 11. 127. 9. 14.
      136. 0. 19. 115. -21. 14. 46. -48. 7. -3. -1. 2. -4. 0. 4. -4. 0.
      16. 132. -10. 19. 111. -11. 18. 90. -10. 20. 68. -12. 29. 45. -11.
      28. 30. -4. 4. 28. 2. -3. 31. 1. 15. 27. -5. 9. 17. -5. 1. 15. 3.
      -45. 7. -11. 6. -4. 0. 2. -4. 0. 3. -5. -1. 5. 15. -1. 8. 14. 0.
      7. 13. -1. 8. 12. 0. 17. 11. -1. 23. 9. -1. 7. 9. 1. 1. 13. 3. 7.
      13. -3. 4. 10. 0. 3. 9. -1. -61. 3. -5. 4. -4. -2. 2. -6. 0. 2.
      -6. 0. 4. 20. 0. 5. 17. -3. 5. 13. -1. 6. 10. -2. 14. 6. -2. 18.
      0. -4. 5. -7. -3. 0. -14. -4. 0. -22. -4. 1. -29. -3. 2. -32. 0.
      -53. -19. 13. 3. -5. 1. 0. -6. -2. 3. -7. 1. 3. 7. -1. 3. 7. 1. 4.
      8. 0. 4. 8. 0. 11. 7. -1. 12. 4. -2. 3. 3. 1. -3. 5. 1. -4. 6. 0.
      -7. 1. -5. -2. -8. -4. -37. -9. 3. 2. -8. -2. -2. -10. 0. 4. -10.
      0. 2. 6. 0. 4. 6. 0. 4. 6. 0. 5. 7. 1. 10. 8. 0. 7. 5. -3. 6. 4.
      2. 0. 8. 2. -1. 13. 3. -7. 21. 5. -10. 22. -4. -53. -1. -19. -20.
      -40. -20. 0. -58. 2. -4. -64. -8. 4. 12. 2. 4. 14. 0. 3. 13. -1.
      6. 12. 0. 9. 11. -1. 6. 12. 2. 6. 12. -2. -1. 7. -3. 0. 2. -2. -5.
      -3. -3. -10. -2. 4. -36. 38. 36. -20. 94. 20. 1. 113. -1. -6. 118.
      6. 6. 16. 0. 4. 16. 0. 3. 17. 1. 4. 16. -2. 6. 12. -2. 5. 7. -3.
      0. 0. -4. -4. -4. 0. -2. -4. 0. -3. 1. 5. -3. 9. 3. 1. 13. 1. 0.
      14. 0. 1. 15. 1. 0. 16. 0. 6. 4. 0. 4. 4. 0. 4. 4. 0. 3. 5. 1. 4.
      6. 0. 1. 5. -1. -2. 6. 2. -2. 10. 2. -1. 13. 1. 0. 12. -2. -1. 9.
      -1. 1. 7. -1. -2. 4. -2. 0. 0. -2. 0. -2. 0.</_>
    <_>
      416. 1056. 96. 2656. 832. 320. 64. 256. 768. 448. 1248. 128. 2192.
      592. 784. 704. 192. 0. 400. 2512. 176. 880. 1808. 528. 416. 992.
      288. 412. 332. 340. 4. 212. 460. 168. 192. 56. 332. 148. 12. 676.
      68. 92. 528. 16. 8. 44. 20. 28. 408. 400. 344. 196. 484. 260. 48.
      160. 64. 256. 160. 64. 904. 88. 136. 624. 40. 88. 4. 52. 76. 32.
      16. 32. 60. 52. 4. 12. 60. 4. 160. 96. 32. 1152. 16. 112. 428.
      380. 284. 48. 632. 32. 12. 4. 12. 52. 12. 4. 28. 4. 20. 124. 20.
      4. 976. 272. 288. 200. 616. 56. 140. 548. 124. 40. 576. 64. 84.
      676. 36. 76. 740. 28. 96. 744. 24. 428. 460. 260. 108. 348. 148.
      148. 380. 116. 60. 356. 44. 72. 264. 48. 64. 176. 40. 56. 120. 16.
      128. 64. 40. 24. 8. 16. 8. 48. 40. 20. 52. 4. 28. 60. 4. 32. 72.
      8. 40. 80. 0. 72. 64. 16. 12. 52. 4. 44. 60. 4. -1. -21. -19. 3.
      -23. 17. 29. -23. -17. 105. -107. -67. -6. -172. 2. 0. -162. 8.
      -106. -80. 74. -8. 0. 6. 295. -27. -33. 108. -30. 30. -219. 5. 5.
      -21. 23. 13. 2. 28. -8. -2. 14. -6. -10. -2. -10. -4. 14. 16. 80.
      90. 60. -25. 113. -37. 40. 78. 2. -19. 65. -15. 8. 50. 0. -56. 26.
      -24. -4. 0. -2. 250. -14. -12. 148. -16. 10. -205. 3. 9. -16. 4.
      -8. -9. -7. -3. -10. -12. -2. -16. -10. 4. 9. -11. -3. 230. 76.
      90. -94. 134. -32. -59. 1. -101. -16. -82. 18. 5. -67. -3. -49.
      -39. 31. -2. -4. 4. 211. -27. -27. 181. -31. 23. -186. 2. 10. -37.
      -1. -13. -9. -11. 3. -8. -4. 4. -10. 2. 2. 0. -10. -6. 158. -178.
      -162. -51. -265. 75. -68. -98. 92. 1. -7. -1. -3. -13. -5. -12.
      -12. 6. 2. -6. 0. 148. -42. -36. 238. -44. 34. -165. 1. 11. -80.
      -18. -30. 5. -37. 11. 0. -22. 4. -5. -15. 3. 1. 3. 7. -3. 11. 1.
      35. 23. 11. -2. 8. -26. 0. -18. 0. 12. 2. 20. -13. 15. -7. -3. 3.
      -5. 115. 1. 3. 264. -4. -8. -126. 16. 28. -125. 29. -15. 22. 20.
      6. 8. 30. 4. 2. 38. 4. 5. 1. -3. -4. -4. -2. 31. -21. -15. -12.
      -20. 16. 1. -3. 1. 16. -18. -16. -9. -23. 11. -3. -7. 5. 96. -24.
      -22. 269. -33. 13. -48. 30. 50. -72. 148. 68. 11. 199. -17. 0.
      170. -12. -6. 146. -12. 2. 2. 0. -12. -4. -6. 20. -6. 4. 4. -2. 0.
      2. -2. 0. 0. -2. 0. 0. -4. -2. 2. -6. 0. 60. -20. -14. 290. -26.
      8. -8. -28. -10. -47. -81. -43. 31. -87. 37. 2. -36. 14. -24. -28.
      -6. 0. 4. -2. -16. 4. 2. 20. 2. -4. 4. -2. 0. 2. -2. 0. 1. -1. 1.
      -1. 1. 1. 1. 1. -1. 31. -15. -15. 305. -23. 7. -42. -40. -24.
      -157. -131. -67. 92. -174. 24. 15. -151. -1. -11. -133. 19. -2.
      -2. 0. -12. 0. 2. 13. -1. -3. 5. -3. 1. 1. -3. -1. 6. 0. 4. 12.
      16. 12. 13. 41. 13. 23. 61. 7. 172. -72. -140. -22. -168. 44. -94.
      6. 130. 81. 101. -35. 24. 76. 10. 1. 79. -7. 11. 63. 13. 5. 91.
      15. 15. 111. 5. 16. 126. 10. 14. 150. 14. 17. 171. 7. 18. 172. -6.
      17. 157. -9. 20. 138. -10. 33. 129. 1. 17. 125. -5. 14. 98. -22.
      30. 60. -16. 22. 32. -12. -7. 19. -1. 13. 133. -11. 12. 114. -8.
      13. 99. -7. 15. 81. -11. 16. 58. -12. 14. 36. -10. 10. 24. -2. 7.
      21. -1. 11. 21. 1. 30. 18. -4. 13. 15. 1. -1. 23. 7. 9. 25. -5. 8.
      18. -2. -8. 16. 0. 1. 27. -1. 3. 25. -1. 5. 23. -1. 4. 22. 0. 3.
      21. -1. 4. 20. 0. 6. 18. -2. 5. 15. -1. 10. 12. -2. 21. 5. -5. 12.
      -2. -2. 2. -8. -4. 0. -16. -4. 3. -23. -3. -5. -23. 3. 0. 14. 0.
      1. 13. -1. 3. 11. -1. 3. 9. -1. 3. 9. 1. 4. 10. 0. 3. 9. -1. 5. 9.
      1. 7. 9. -1. 14. 6. -2. 9. 3. -1. -1. 3. 1. -5. 3. -1. -6. -4. -6.
      -5. -13. -3. 2. -2. 2. 2. 2. 2. 2. 4. 0. 3. 5. 1. 4. 6. 0. 4. 6.
      0. 3. 7. 1. 5. 7. -1. 7. 7. 1. 11. 7. -1. 8. 6. 0. 2. 8. 2. -3.
      13. 3. -7. 21. 5. -13. 21. -5. 4. 10. 0. 3. 9. -1. 4. 10. 2. 4.
      12. 0. 5. 13. 1. 5. 15. 1. 4. 16. 0. 4. 16. 0. 7. 15. -1. 9. 13.
      -1. 6. 10. -2. 1. 5. -3. -2. 0. -2. -4. -4. -2. -11. 1. 7.</_>
    <_>
      1312. 896. 96. 272. 880. 80. 32. 992. 32. 736. 1984. 672. 96.
      2400. 256. 96. 1984. 160. 1264. 2736. 1200. 1632. 2144. 1792. 288.
      384. 32. 1372. 28. 68. 356. 76. 20. 52. 20. 36. 12. 12. 4. 28. 4.
      4. 8. 8. 8. 12. 36. 20. 1420. 28. 20. 260. 68. 116. 32. 240. 56.
      4. 300. 4. 4. 324. 20. 4. 332. 12. 12. 276. 44. 892. 468. 508. 76.
      908. 68. 44. 908. 68. 52. 1028. 52. 16. 1112. 32. 4. 1140. 4. 12.
      1092. 44. 196. 124. 188. 0. 304. 8. 48. 232. 64. 44. 108. 60. 8.
      8. 40. 12. 44. 12. 36. 60. 4. 8. 48. 0. 8. 48. 0. 16. 48. 0. 16.
      48. 0. 32. 48. 0. 28. 52. 4. 40. 56. 0. 152. 184. 144. 112. 432.
      104. 48. 568. 32. 264. 320. 280. 36. 44. 4. 32. 48. 0. 44. 52. 4.
      628. 364. 332. 268. 748. 52. 68. 788. 12. 920. 400. 376. 48. 32.
      8. 28. 36. 4. 64. 48. 16. -40. 10. 14. -391. 11. -13. 170. -38.
      -36. -1. -71. 3. -2. -66. 2. 3. -65. -1. 6. -64. 2. 4. -56. 6. -4.
      -48. 2. 7. -45. 1. 4. -44. 0. -3. -45. -1. 1. -45. 1. 3. -39. 5.
      -1. -33. 1. -21. 1. 5. -406. 4. -2. 129. -3. -5. 15. 5. 13. 8. 26.
      8. 4. 36. 2. 3. 33. -5. 5. 23. -5. -2. 18. 0. 7. 17. -1. 4. 16. 0.
      -5. 15. -1. -3. 9. -5. 4. 0. -4. -4. -8. -4. -6. 6. 10. -415. 9.
      -7. 119. -3. -5. 29. -7. 1. 11. -11. -5. 14. -8. 8. 2. 4. 4. 1. 9.
      1. 1. 13. 3. 4. 14. -2. 5. 13. 1. -4. 16. 2. -6. 20. 2. -2. 20.
      -2. -4. 22. 4. 9. 1. 5. -408. 20. 14. 90. 10. -24. 36. -8. 6. 4.
      -4. -2. 14. -14. -8. 12. -16. 6. 5. -7. 3. -1. -9. -5. 0. -16. -2.
      3. -21. -3. -7. -29. -5. -7. -37. -3. -7. -43. -3. -4. -50. -4.
      17. -1. 3. -361. 35. 33. 5. 7. -61. 36. -60. -6. -5. -73. -7. -4.
      -90. -10. 1. -117. -17. 1. -141. -7. -5. -147. 1. -2. -146. 0. 2.
      -144. 2. -2. -132. 10. 4. -108. 14. 9. -75. 19. 7. -41. 15. 13.
      -7. -7. -247. 67. 81. -55. 149. 1. 27. 147. -3. 7. 163. 19. 8.
      204. 22. 9. 251. 25. 11. 293. 17. 8. 322. 12. 8. 344. 10. 7. 357.
      3. 6. 358. -2. 8. 346. -10. 13. 321. -15. 8. 292. -14. 4. -8. -2.
      -82. 74. 84. -28. 184. 26. 10. 196. -14. 11. 167. -15. 14. 136.
      -16. 16. 102. -18. 13. 69. -15. 8. 42. -12. 8. 20. -10. 3. 3. -7.
      1. -7. -3. -4. -12. -2. -3. -15. -1. -6. -16. 0. 0. -8. -2. 0.
      -12. -2. 0. -12. 2. -4. -10. 0. -2. -8. 2. -2. -6. 0. -2. -6. 0.
      -2. -6. 0. -4. -6. 0. -2. -6. 0. -4. -6. 0. -2. -6. 0. -6. -6. 0.
      -5. -7. -1. -5. -7. 1. -3. -7. -1. -1. -7. 1. 2. -6. 0. -3. -5. 1.
      -2. -6. -2. -1. -7. 1. -2. -6. 0. -2. -6. 0. -3. -5. 1. -3. -5.
      -1. -4. -6. 0. -2. -6. 0. -6. -6. 0. -5. -5. 1. -5. -5. -1. -4.
      -6. 0. 0. -6. 0. 1. -7. -1. -2. -8. 0. -3. -7. 1. 0. -6. 0. -1.
      -5. 1. -3. -5. -1. -3. -7. -1. -4. -8. 0. -3. -7. 1. -2. -6. 0.
      -6. -6. 0. -4. -6. 0. -7. -7. -1. -2. -6. 2. 0. -4. 0. 0. -4. 0.
      -2. -4. 0. -2. -4. 0. -1. -5. -1. -1. -7. -1. -3. -7. 1. -4. -6.
      0. -3. -5. 1. -3. -5. -1. -3. -7. -1. -6. -8. 0. -4. -8. 0. -7.
      -7. 1. -1. -5. -1. 0. -6. 0. 1. -5. 1. 0. -2. 2. -3. -1. -1. -4.
      -4. -2. -5. -9. -3. 2. -8. 4. -5. -5. -1. -3. -7. -1. -4. -8. 0.
      -3. -7. 1. -6. -6. 0. -4. -6. 0. -9. -9. -3. 1. -3. 3. -34. -34.
      -34. -78. -148. -80. -8. -238. -10. -15. -259. -11. -19. -283.
      -13. 13. -275. 21. 135. -125. 129. -11. -1. -5. -4. -6. 0. -3. -5.
      1. -3. -5. -1. -6. -6. 0. -5. -7. -1. -6. -2. 6. 7. -3. 3. -93.
      -25. -25. -216. -108. -58. 25. -123. 43. -15. -69. 11. -24. -50.
      8. 28. -48. -6. 291. -27. 27. -19. -3. -3. -3. -5. 1. -3. -5. -1.
      -4. -6. 0. -7. -7. -1. -5. -7. 1. -1. -7. -1. 9. -7. -1. -99. 11.
      19. -291. 13. -17. 68. -4. 0. -3. -3. 1. -15. -1. 1. 5. -17. -17.
      332. -20. 14. -21. -5. 1. -2. -4. 0. -3. -3. 1. -2. 0. 2. -7. 3.
      1. -9. -1. -5. -12. -16. -10.</_>
    <_>
      1072. 1904. 880. 160. 1056. 32. 1424. 528. 560. 512. 1952. 1440.
      800. 96. 608. 720. 560. 144. 352. 1856. 576. 2496. 2368. 1088.
      256. 3136. 320. 100. 132. 228. 32. 200. 104. 72. 312. 8. 4. 300.
      20. 4. 252. 28. 192. 48. 176. 616. 200. 72. 540. 788. 212. 260.
      452. 124. 20. 284. 44. 24. 248. 8. 28. 260. 4. 348. 244. 20. 320.
      144. 368. 556. 316. 196. 232. 32. 152. 40. 248. 64. 0. 280. 32.
      60. 276. 28. 216. 192. 112. 68. 60. 20. 176. 792. 184. 128. 400.
      208. 204. 92. 100. 28. 12. 4. 108. 36. 20. 164. 116. 60. 112. 152.
      24. 28. 204. 36. 152. 16. 184. 184. 320. 120. 188. 228. 212. 136.
      8. 8. 0. 224. 224. 160. 152. 296. 64. 408. 0. 40. 400. 8. 56. 384.
      8. 628. 604. 228. 88. 776. 56. 60. 1004. 284. 100. 932. 356. 124.
      196. 60. 20. 164. 28. 40. 184. 8. 896. 216. 40. 40. 184. 72. 144.
      88. 200. 268. 300. 12. 13. -17. -3. -20. -14. 6. -35. -39. -31.
      36. -60. 10. -74. -56. -6. 28. -48. 14. -21. -39. -5. -2. -28. 16.
      35. -3. 9. -56. 10. 4. 95. -13. -27. 18. -28. 12. -138. -26. -10.
      -80. -62. -26. 26. -58. 30. 1. 33. -9. -29. 9. -15. -31. 29. 35.
      38. 56. -8. -38. 90. 42. 10. 100. -32. -18. 76. 8. 11. 81. -3. 19.
      53. -25. -25. 55. 27. 26. 40. -42. 15. -17. -15. -133. -17. 15.
      -113. -9. -7. 12. -60. -44. 27. -227. 35. 52. -96. 96. 34. 30. 30.
      15. 45. -15. 1. 27. -3. -13. 33. 9. -6. 46. 4. 2. 44. -6. -5. 39.
      1. 0. 38. -2. -10. 42. 6. -42. 6. -42. -89. -7. 29. -98. 44. 22.
      -56. 42. -24. 32. -136. -30. 118. -196. -30. 143. -147. 79. 4.
      -64. 4. 12. -46. 14. -5. -33. -1. -12. -44. -10. 0. -50. 4. 1.
      -41. 5. -2. -36. 0. -9. -41. -5. -103. -65. -19. -12. -36. 48.
      -48. 40. 28. -56. 92. 24. 6. -4. 4. 120. 32. 32. 130. -28. -92.
      19. -109. 11. 25. -99. -1. 0. -94. 6. -13. -79. 9. -5. -79. -9. 7.
      -87. 1. -1. -85. 1. -20. -90. -6. -109. -83. 13. 75. -31. 39. -21.
      7. -1. -8. 30. 24. 3. 79. -7. 166. 86. 14. -10. 52. -48. 29. 3.
      -1. 13. -9. -11. 37. 11. 31. -76. -30. -72. 18. -70. 32. 30. -16.
      22. -17. -11. -17. -25. -27. 1. -77. -7. 19. 112. 10. -2. -27. 3.
      -5. 1. -17. -15. 45. 103. 49. 104. 76. -76. -72. -14. -14. 46.
      -10. 18. 19. 25. 17. 9. -17. -59. -86. -14. 62. 43. 41. -7. 14.
      -4. -38. -24. -32. 10. -10. -8. 14. -68. -4. -10. 94. -30. -16.
      -20. -34. 12. -10. -18. 4. 56. 168. -38. 12. 114. -16. -54. 130.
      32. 1. 99. -63. -68. -68. -104. -20. -142. 30. 24. -64. 48. 25.
      -27. -11. -18. -32. 6. -7. -19. 7. -10. -26. -14. -56. -18. 22.
      69. -5. -9. -7. -13. 1. 2. -4. 8. 9. 51. -9. -2. 44. 2. -11. 57.
      11. -34. 96. 28. -87. 209. 85. -39. 245. -49. 11. 135. -61. 6. 66.
      -8. -12. 58. 0. 4. 62. 4. -60. 30. -36. -41. -13. -7. 33. -47.
      -27. 25. -43. 31. -15. -37. -25. -12. -38. -12. 11. -39. 11. -5.
      -33. -5. -7. -39. -1. 2. -36. 4. -41. 15. 47. -48. 64. 2. -53. 15.
      -51. -5. -29. 7. 29. -1. 21. -99. 17. -3. 15. 77. 63. 23. 157. 17.
      10. 128. -46. -81. 41. -41. -50. -94. -26. 35. -107. 13. 12. -72.
      22. -1. -43. 7. 3. -39. -3. -15. -63. -21. -4. -42. 42. -90. 14.
      14. -15. 11. -17. 14. -42. -36. -86. -62. 16. 109. -15. 31. -18.
      -42. -58. -54. -118. -18. -104. -118. 18. -82. -8. -6. 19. -43.
      -29. 52. -54. 18. -11. -53. -17. 12. -58. 12. -36. -46. 0. 27.
      -57. -11. -124. -116. -48. -26. -158. 6. -10. -140. 12. -57. -115.
      13. 38. -204. -102. -59. -289. 17. -17. -217. 55. 8. -68. 94. -41.
      -95. 47. 4. -34. 14. 65. -25. -5. -29. -31. -1. 16. -40. -8. -34.
      -46. 2. 28. -32. 12. -210. -58. -38. -34. -110. -14. 40. -86. 38.
      -64. -68. -20. -42. -66. 22. -23. -25. 19. 23. -21. -15. 104. -34.
      2. 6. -24. 0. 27. -15. 9. 50. -16. -10. -22. -18. 8. -1. -19. -9.
      -23. -19. 9. 32. -18. -8. -237. -15. 11. -47. -3. 1. 86. 6. 8.
      -94. 4. -10. 4. 18. 24. 49. 95. 53. 8. 148. 0. 50. 92. -56. 5. 13.
      -1. 30. 6. -6. 27. -13. -13. -6. -18. 8. -17. -17. -7. -10. -20.
      4. 19. -21. -5. -223. -23. 3. -39. -13. 7. 100. 0. 6. -106. 4. -2.
      26. 0. -2. 81. -23. -21. 36. -16. 28. -12. 6. -6.</_>
    <_>
      672. 2656. 352. 128. 1632. 672. 1376. 864. 96. 272. 3920. 48. 480.
      3648. 320. 1856. 2752. 576. 464. 656. 240. 64. 320. 96. 2160. 496.
      272. 40. 536. 0. 132. 548. 12. 208. 632. 72. 36. 740. 36. 0. 864.
      88. 252. 732. 220. 228. 564. 52. 56. 448. 16. 84. 404. 60. 212.
      276. 68. 8. 128. 80. 8. 32. 80. 68. 76. 36. 152. 168. 128. 68. 76.
      4. 24. 72. 0. 44. 28. 100. 136. 176. 48. 172. 324. 100. 336. 192.
      232. 136. 152. 112. 32. 744. 96. 12. 852. 12. 0. 808. 56. 112.
      680. 72. 212. 548. 60. 620. 436. 52. 244. 388. 4. 104. 528. 24.
      100. 404. 100. 12. 348. 44. 32. 320. 72. 160. 256. 8. 604. 332.
      68. 184. 456. 56. 76. 44. 4. 212. 60. 12. 32. 72. 0. 100. 68. 4.
      152. 80. 16. 524. 84. 12. 100. 44. 28. 44. 12. 28. 236. 28. 12.
      68. 4. 36. 92. 36. 4. 108. 12. 28. 548. 52. 36. 32. 16. 104. -25.
      37. -7. 17. 33. 3. 11. 41. 5. 23. 45. -1. 3. 45. 1. 36. 52. 6. -8.
      38. -20. 39. 33. 15. -69. 39. -9. 8. 40. 10. 9. 47. -3. 83. 129.
      85. 61. 283. 69. 6. 350. -2. 14. 334. -14. -43. 25. -11. 10. 4.
      -10. 35. 13. 19. 26. 36. 4. 12. 48. 8. 45. 59. 3. -13. 77. 15. 36.
      74. -18. -43. 91. 35. 11. 119. -7. 24. 130. 18. 88. 68. -80. 135.
      -7. 5. 3. -3. -1. 0. -4. 0. -20. 180. 34. 5. 219. 5. 31. 201. -23.
      18. 166. -12. 7. 141. -13. 66. 146. 18. 1. 163. -1. 15. 159. -3.
      3. 167. 11. 8. 182. 4. 24. 168. -18. -67. 75. -75. 130. -10. -10.
      6. -16. 4. -4. -16. -4. 10. 14. -4. 10. 10. 0. 8. 10. 0. 6. 10. 0.
      -7. 9. -1. 78. 2. -6. 0. -4. 0. 8. -8. -4. 12. -14. -2. 11. -17.
      -1. 7. -17. 1. -135. -9. 7. 109. -13. -11. -18. -52. -28. -7. -79.
      1. 7. 9. 1. 11. 11. 1. 8. 12. 0. 4. 10. -2. -5. 11. 3. 43. -15.
      -29. -7. -51. -7. -12. -74. -16. -13. -113. -23. -10. -156. -20.
      -3. -187. -11. -30. -100. 98. 115. 15. 17. -50. 28. -4. -6. 24. 0.
      11. 9. 3. 13. 13. 1. 8. 14. 0. 1. 13. -1. -1. 13. 1. 6. 6. -8.
      -15. -3. -1. -26. -2. 2. -42. -6. -6. -34. -16. -4. -17. -23. -3.
      73. -21. 5. 143. -5. 11. -44. 16. 10. -3. 29. 3. 10. 12. -4. 7. 1.
      -7. 11. -3. 3. 2. 2. 2. -3. 1. -3. -5. -5. -3. -15. -7. 1. -23.
      -5. 1. -33. 11. 15. -35. 29. 3. -32. 20. -12. 82. 12. 4. 153. 15.
      -1. -15. 33. 19. 0. 52. 0. -5. -33. -11. -5. -49. -5. -19. -87.
      -33. -2. -126. -6. 0. -126. 6. -16. -128. -8. -8. -130. 6. -13.
      -115. 9. -9. -97. 9. -19. -75. 13. -21. -39. 23. 88. -14. 2. 154.
      -10. 2. 5. -7. 1. 0. -6. 0. -12. -268. 4. -9. -263. 1. -34. -244.
      18. 15. -203. 23. 4. -182. -2. 14. -146. 38. -6. -112. -4. -5.
      -117. -1. -2. -120. -2. -37. -153. -31. 0. -186. -2. 108. -170.
      18. 119. -189. -37. 1. -231. -5. 0. -236. 0. -7. -3. 1. -11. -5.
      -3. -15. -7. 1. 51. 7. 13. -10. 8. -12. 19. -37. -33. 9. -51. 19.
      -3. -29. 3. 13. -9. 17. -71. 5. -3. 9. 13. 11. 111. 9. -15. 82.
      -6. 0. -4. -6. 0. -9. -15. -9. -2. 0. 4. -12. 6. 2. -14. 8. 0. 66.
      10. 2. -20. 14. 2. -11. 19. 3. 26. 20. -2. 0. 18. 0. 28. 16. -2.
      -71. 17. 3. 28. 28. 8. 74. 14. -22. 91. 1. 9. -2. 12. 2. -22. 10.
      -4. -9. 13. -11. -9. 3. 1. -13. 5. 1. 68. 6. 0. -13. 11. 5. -12.
      12. -4. 25. 9. 1. -1. 9. -1. 27. 9. 1. -65. 13. 3. 47. 27. 11. 34.
      20. -18. 101. 3. 1. 1. 5. 1. -26. 6. 0. -15. -7. 5. -6. 0. 2. -12.
      2. 0. 66. 0. -2. -4. 2. 4. -23. -1. -7. 32. -2. 6. -4. 2. -2. 26.
      -2. -2. -64. -6. -2. 33. -33. -25. 75. 1. 59. 72. 30. -30. -3. -5.
      -5. -29. -13. -3. -6. -6. 4. -3. -1. 1. -9. 3. 3. 64. 6. 0. -1. 5.
      -1. -34. 0. -4. 43. 1. 5. -8. 4. -2. 32. 10. 8. -64. 20. 2. 3. 17.
      -5. 144. 22. 10. 23. 13. -19. -7. -5. 1. -38. -10. -6. -2. 0. 0.
      -2. 0. 0. -6. 0. 0. 66. 2. 2. 0. 6. 2. -46. 0. -8. 41. -15. -7.
      -7. -19. 3. 16. -40. -24. -28. -30. 34. 1. 7. 3. 143. -1. -11. 2.
      -14. -2. -21. -31. -15. -26. -28. 18.</_>
    <_>
      1664. 32. 2208. 1488. 944. 1232. 128. 224. 64. 32. 1152. 576. 80.
      240. 336. 320. 352. 256. 608. 224. 0. 192. 0. 224. 800. 0. 224.
      36. 4. 20. 1076. 60. 44. 244. 236. 132. 564. 196. 172. 8. 32. 56.
      80. 80. 8. 72. 40. 32. 16. 872. 0. 444. 284. 588. 384. 312. 8.
      236. 164. 156. 108. 36. 44. 16. 24. 56. 76. 4. 28. 4. 628. 20. 56.
      560. 88. 160. 240. 232. 68. 4. 12. 176. 40. 24. 44. 60. 4. 60. 44.
      12. 12. 124. 12. 48. 96. 16. 120. 32. 48. 52. 20. 4. 192. 16. 8.
      4. 60. 52. 104. 80. 32. 4. 20. 4. 68. 28. 4. 164. 28. 4. 52. 20.
      4. 144. 24. 40. 124. 4. 68. 108. 100. 28. 12. 36. 4. 84. 52. 12.
      132. 36. 28. 48. 16. 8. 48. 32. 56. 240. 40. 48. 68. 20. 12. 8.
      24. 8. 96. 16. 0. 100. 12. 4. 32. 16. 8. 48. 16. 40. 268. 76. 20.
      8. 32. 64. 1. -3. 1. 0. -4. -2. -32. 16. 22. -275. 21. -17. 25. 7.
      3. -18. 4. -6. 68. 20. 22. 138. 34. -8. 22. 10. -16. -2. -2. 4. 4.
      -4. -6. -18. -16. -6. -11. -17. 5. 19. -5. 7. -5. -1. -3. 1. -5.
      -1. 0. -4. 2. -4. 4. 6. -271. 31. 21. -12. 12. -40. 5. 1. 29. 116.
      56. 26. 93. 45. -37. 1. 3. -5. 3. -1. 1. -12. -10. -10. -22. -18.
      2. 2. -8. 8. 27. 1. 1. -11. -1. -3. 1. -1. 1. -1. -3. -3. -5. -13.
      -7. -219. 11. 31. -73. 21. -21. 67. 33. 33. 126. 50. -16. 34. 12.
      -22. 1. -5. 5. -4. -8. -8. -25. -19. -3. -12. -14. 8. 16. 0. 6.
      24. 2. -4. -15. -3. -1. -22. -234. -24. -17. -271. -13. -22. -294.
      -10. -86. -202. 102. -21. -27. 73. 111. 57. 11. 83. 41. -27. 7. 9.
      -5. 5. 3. -1. -19. -5. -7. -25. -9. 3. 3. 1. 7. 21. 7. -1. 17. 3.
      -3. -18. -2. -2. -10. 34. 36. 1. 101. 31. -1. 163. 31. 19. 197. 3.
      35. 183. -17. 68. 112. -54. 28. 30. -28. 4. 4. 2. 4. 6. 0. -28. 4.
      -2. -26. -2. -4. 10. -6. 0. 24. -2. 4. 12. 0. -2. -22. -4. -2. 13.
      121. -13. 18. 94. -14. 16. 66. -14. 11. 41. -11. 7. 19. -11. 5.
      -1. -9. 0. -10. 0. 10. -6. 4. 4. -2. 0. -32. -4. -2. -29. -5. 1.
      11. -3. 1. 29. -1. 1. 7. -3. -3. -21. -3. 3. 2. 28. 2. 4. 30. 0.
      1. 29. -1. -1. 27. -1. -12. 18. -8. -14. 0. -10. 1. -9. 1. 13. -9.
      -1. 0. -14. -4. -36. -20. -2. -26. -20. 2. 10. -20. -2. 31. -21.
      1. 8. -16. 4. -12. -6. 6. 2. 18. -2. 2. 14. -2. 0. 12. 0. -3. 11.
      -1. -21. 9. -1. -27. 5. -3. 1. 1. -1. 12. 0. 0. -1. 3. 3. -36. 8.
      2. -29. 5. -5. 4. -4. -4. 26. -14. -6. 16. -16. 4. -1. -7. 5. 1.
      3. 1. 0. 4. 0. 0. 4. 0. -4. 4. 0. -22. 4. 0. -31. 3. -1. -2. 0.
      -2. 11. -3. -1. 4. -2. 2. -29. 5. 5. -38. 6. -4. -6. -4. -6. 21.
      -9. 1. 21. -7. 1. 4. -6. 0. 1. -3. -1. 0. -4. 0. -1. -5. -1. -3.
      -5. 1. -25. -7. -3. -31. -9. 1. 0. -4. 4. 8. -2. -2. 8. -2. 2.
      -20. 4. 4. -44. 6. -2. -18. -2. -6. 20. -10. -2. 17. -17. -5. -3.
      -29. -7. 0. -4. 0. 0. -4. 0. -3. -5. -1. -3. -7. -1. -29. -9. -1.
      -27. -7. 3. 6. -2. 2. 5. -1. -1. 11. -1. 1. -10. 6. 6. -46. 12. 0.
      -31. 5. -7. 14. -6. -4. 17. -5. 5. -9. 1. 1. 0. -6. 0. -1. -7. -1.
      -2. -6. 2. -6. -6. -2. -31. -9. -1. -20. -6. 4. 8. -2. 0. 3. -3.
      -1. 12. -4. 0. 2. 2. 6. -41. 13. 5. -44. 12. -6. 3. -1. -7. 20.
      -10. -2. 0. -4. 8. 0. -2. 0. -2. -2. 0. -1. -3. -1. -7. -3. 1.
      -33. -3. -1. -14. -2. 2. 7. -1. -1. 2. -2. 0. 11. -3. -1. 10. -2.
      2. -27. 9. 9. -54. 14. -4. -9. 5. -5. 14. -4. -4. 9. -7. 1. 0. -4.
      0. -2. -4. 0. -1. -3. 1. -7. -3. -1. -32. -2. 2. -12. 0. 0. 5. -1.
      -1. 1. -3. -1. 11. -3. 1. 14. 0. 2. -11. 9. 7. -55. 19. 3. -24.
      12. -10. 9. 1. -1. 9. -1. -1. 0. -2. 0. -1. -1. 1. 1. 1. 1. -9. 1.
      -1. -31. -1. -1. -11. -1. 1. 3. -1. -1. 0. -2. 0. 11. -3. -1. 16.
      -4. 0. 2. 2. 6. -44. 16. 8. -39. 19. -5. -2. 4. -10. 6. -8. -2.</_>
    <_>
      656. 1904. 144. 80. 1200. 560. 1520. 80. 560. 848. 272. 48. 928.
      768. 448. 736. 128. 1344. 352. 5920. 544. 512. 4512. 864. 480.
      3776. 128. 400. 48. 48. 52. 108. 12. 244. 156. 36. 156. 44. 148.
      232. 96. 200. 228. 164. 132. 208. 144. 112. 196. 300. 156. 48.
      448. 8. 92. 252. 188. 24. 32. 32. 68. 36. 36. 408. 120. 48. 220.
      268. 100. 20. 372. 20. 104. 344. 48. 168. 224. 72. 56. 264. 112.
      180. 300. 76. 460. 220. 4. 60. 156. 60. 116. 308. 116. 116. 388.
      36. 228. 340. 12. 60. 436. 108. 172. 460. 84. 252. 164. 212. 80.
      32. 80. 40. 144. 192. 32. 384. 48. 352. 296. 136. 168. 40. 120. 0.
      8. 88. 72. 208. 112. 164. 644. 324. 72. 1696. 80. 40. 1752. 24.
      192. 1432. 296. 76. 924. 212. 28. 772. 60. 100. 916. 84. 416.
      1072. 72. 12. 4. 4. 28. 36. 36. 52. 124. 52. 68. 244. 68. 12. 292.
      20. 8. 280. 8. 176. 456. 168. -48. 28. 38. -56. 68. 2. -68. 38.
      -32. 20. -32. -38. -1. -63. 7. 18. -20. 36. 69. -17. -33. 34. -38.
      12. 16. -30. -4. -98. 12. 46. -40. 82. 24. 40. 52. -54. -84. -10.
      -8. 55. -27. -9. 22. -38. -2. -6. 32. 4. -55. 35. -1. -128. 6.
      -28. -2. -6. 16. 67. 71. 61. 37. 115. -17. 18. 80. -18. 22. 38.
      -24. 10. 12. -2. -25. 37. 27. -20. 60. -4. -44. 26. -30. -70. 18.
      22. 96. 90. 50. -31. 89. -51. 0. -92. 2. -57. -91. -1. -65. -1.
      91. -40. 36. -54. 127. -19. -1. 5. -35. -15. 1. -49. 1. 0. -46. 2.
      5. -47. -3. 2. -50. 0. -26. -52. -2. -48. -28. 26. -59. -13. -11.
      113. -57. -33. -6. -14. 76. -1. 41. -3. -31. 65. 27. 9. 75. -17.
      -49. 103. 45. 58. 80. -68. -10. 12. 0. -5. 5. -7. -6. -10. -8. -1.
      -21. -3. -3. -29. -5. -15. -21. 13. -19. -5. 3. -92. -24. -22. 78.
      -48. -2. 90. -30. 20. 0. 78. 4. -5. 81. -1. -8. 80. 0. -4. 80. 0.
      -10. 80. 0. -14. 76. -4. -12. 72. 0. -12. 74. 2. 8. 88. 12. -12.
      96. -4. -34. 60. -32. -34. 10. -18. -127. -21. -13. 64. -46. -12.
      56. -112. -54. 2. 50. -2. -3. 51. 3. -4. 58. 4. -2. 64. 2. -5. 71.
      5. -9. 85. 9. -5. 101. 7. -6. 112. 4. 10. 106. -10. -10. 102. 6.
      -106. 68. -40. -81. -1. -29. -55. 55. 85. 23. 111. -29. 8. 88. 6.
      0. 0. 0. 0. 0. 0. 0. 0. 0. -28. -28. -28. -20. -76. -20. -53.
      -149. -53. 6. -198. 4. 33. -159. 35. 10. -114. 10. -10. -110. -6.
      -117. -87. 29. -95. -43. 15. 76. 18. 46. -27. 43. -21. -21. -13.
      -35. -27. -95. -27. -28. -150. -28. -33. -211. -33. -31. -219. 25.
      -17. -171. 23. -50. -92. 56. 12. -34. 2. 42. -58. -26. 15. -89.
      -5. -11. -89. 5. -63. -59. 25. -68. -22. 12. 127. -5. 5. -72. -24.
      -24. -68. -60. -12. -27. 95. 27. -28. 150. 28. -33. 211. 33. -3.
      247. 3. -3. 241. -9. -36. 190. -42. -32. 102. -46. 0. 40. -16. 10.
      24. 0. 1. 31. 7. -59. 17. -21. -40. 12. 16. 120. 16. -12. -77. 23.
      19. -45. 77. 35. -3. -9. -3. 4. -8. 4. 2. -2. 2. 0. 0. 0. -6. 6.
      6. -79. 11. -1. -105. -17. -27. -12. -40. 4. 12. -34. 2. 53. 13.
      45. -113. 25. -33. 19. 35. 43. 150. 120. 42. -35. 185. 23. -8.
      210. 2. 15. -101. 21. 24. -64. 16. 12. -40. 8. 0. -32. 0. -3. -35.
      -3. -69. -27. 11. -104. 12. 28. -31. 17. -23. 20. 0. 6. 74. -18.
      -24. -121. -17. 25. -13. -67. -75. 237. -97. 45. 8. -32. 20. -7.
      -13. -1. 17. -355. -19. 20. -394. -20. 9. -425. -11. 6. -430. 6.
      16. -402. 22. -18. -340. 40. -25. -249. 51. -6. -150. 48. 25.
      -103. -1. 6. -148. -44. -41. -137. 55. -61. -55. 27. 175. -135.
      -107. 72. -198. 44. 19. -127. 27. 0. 0. 2. 0. 2. 0. -1. 3. 1. 6.
      -2. -6. 19. -27. -19. 10. -58. -12. 14. -82. -12. 22. -114. -20.
      11. -147. -13. -18. -140. 20. 8. -126. -6. -17. -115. 17. 34.
      -132. -34. 57. -225. -59. 23. -307. -23. 0. -2. -2. 0. -4. 0. 0.
      -4. 0. 0. -4. 0. 0. -4. 0. -1. -3. 1. 2. -2. 0. 0. -4. -2. 0. -4.
      2. 1. -3. -1. 1. -5. -1. 1. -5. 1. 0. -4. 0. -1. -3. 1. 0. -2. 0.
      14. 10. 16. -8. 18. -8. -7. 3. -7. 1. -3. 1. 1. -1. 1. 0. 0. 0. 1.
      -1. -1. -1. -1. 1. 1. -1. -1. 0. -2. 0. 1. -1. 1. 0. -2. -2. 0.
      -4. 0. 1. -3. 1. 1. -1. 1.</_>
    <_>
      1280. 2208. 256. 448. 1728. 224. 672. 704. 800. 1776. 2736. 752.
      144. 2064. 80. 144. 1872. 272. 2064. 720. 464. 192. 1440. 256.
      144. 1968. 272. 28. 612. 68. 324. 948. 268. 144. 1272. 56. 68.
      1252. 76. 56. 1112. 64. 204. 844. 204. 268. 356. 284. 28. 580. 12.
      240. 216. 352. 164. 172. 36. 12. 188. 20. 48. 208. 40. 8. 240. 8.
      48. 264. 32. 144. 544. 160. 272. 320. 384. 116. 52. 12. 4. 12. 28.
      20. 52. 68. 8. 96. 24. 16. 136. 64. 224. 416. 80. 680. 312. 24.
      140. 252. 36. 8. 200. 16. 4. 228. 44. 8. 248. 24. 48. 224. 0. 148.
      372. 4. 672. 408. 32. 76. 540. 100. 4. 644. 4. 52. 660. 12. 48.
      640. 32. 168. 488. 120. 148. 84. 4. 640. 88. 0. 76. 36. 52. 8. 24.
      8. 200. 168. 136. 12. 372. 68. 340. 388. 52. 152. 72. 8. 564. 12.
      76. 172. 132. 44. 44. 116. 60. 144. 136. 192. 72. 312. 16. 232.
      136. 160. -48. 32. 0. -3. 33. 1. 7. 39. 5. 8. 48. 4. 4. 54. 2. 11.
      61. 5. 18. 80. 14. 15. 105. 11. 23. 129. 13. 12. 150. 8. 14. 170.
      12. 60. 246. 64. 71. 289. -21. 71. 195. -73. 61. 59. -63. -51. 47.
      -3. 1. 47. 3. 20. 58. 8. 99. 153. 87. 49. 283. 43. 7. 317. -9. 16.
      292. -16. 12. 262. -14. 18. 230. -18. 9. 201. -11. 13. 177. -13.
      62. 102. -62. 24. 14. -26. -1. -11. 1. -1. -9. 1. -27. 147. 27. 9.
      179. 5. 29. 185. 1. 82. 82. -104. 101. -13. 9. 0. -2. 2. -1. -1.
      -1. 0. 0. 2. -1. 1. -1. -1. 1. 1. 0. 2. 0. 0. 2. 0. -1. 3. 1. -6.
      -2. -6. 6. -2. 6. 7. 101. 7. 14. 108. 0. 10. 88. -20. -58. 32.
      -36. 84. -30. -26. 3. -55. 1. -9. -61. -7. 3. -67. 1. 4. -60. 6.
      -17. -71. -17. -2. -90. -2. 5. -87. 5. -3. -85. -3. -39. -115.
      -27. 35. -119. 23. 8. -56. -6. 6. -70. -8. -10. -78. 0. -53. -37.
      41. 62. 8. 4. -1. 7. -5. 4. 22. 20. 1. 39. -3. 10. 36. 0. -37. 33.
      -3. 18. 52. 22. -1. 63. -11. -7. 51. -1. -29. 87. 37. 24. 90. -34.
      -29. -69. -31. -24. -122. -22. -5. -139. 5. 53. -69. 65. 62. -8.
      -4. -17. -23. -11. 7. -51. -17. -6. -72. -4. 9. -77. -1. -16. -54.
      24. 29. -41. -11. -12. -52. 0. -16. -60. -8. 24. -52. 16. -7. -33.
      3. -44. 6. 16. -48. 20. -2. -13. 5. -13. 125. -1. 7. 88. 36. 30.
      -14. 80. 14. -5. 99. 5. -5. 109. 5. 4. 110. -4. 4. 102. -4. 9. 89.
      -9. -6. 86. 6. -12. 104. 12. 20. 96. -20. -2. 78. 2. -16. -38. 12.
      -31. -7. 19. -11. 27. 15. 108. 18. -24. 122. -2. 4. 0. 2. 0. 0. 2.
      0. 0. 2. 0. 0. 2. 0. 0. 2. 0. 0. 2. 0. 0. 2. 0. 0. 2. 0. 0. 2. 0.
      0. 2. 0. -4. -180. 0. -37. -205. -25. 6. -228. 2. 136. -174. 52.
      74. -174. -52. 9. -217. 9. -2. -210. -2. 3. -209. 3. -3. -209. -3.
      -7. -219. -7. -4. -230. -4. -1. -235. -1. 14. -222. 14. 8. -200.
      8. -2. -194. -2. 13. -13. 17. -64. 2. -2. 13. 5. 5. 174. -4. -14.
      14. -26. -8. 5. -47. -13. -2. -58. 2. 5. -57. -1. -5. -57. 1. 4.
      -38. 18. -37. -49. -29. -8. -84. -6. 80. -38. 52. 12. 10. -4. 5.
      15. 9. 28. 24. -2. -66. 22. 0. 26. 30. 8. 137. 15. -23. 21. 7. 15.
      -14. 16. -6. -6. 4. -6. 5. -1. 1. -3. 1. 1. 20. 0. -2. -70. -6.
      -4. -9. -5. 5. 130. -2. -2. -6. -18. -14. 23. -23. 9. 25. 5. -1.
      -65. 5. 1. 36. 8. 2. 110. 6. -4. 38. 4. 2. -20. 6. 0. -16. 2. -4.
      8. 0. 2. -3. 1. -1. -6. -24. -24. -79. -53. -5. -7. -61. -3. 68.
      -124. -60. 4. -160. 24. 36. -132. 4. 27. 3. 3. -63. 7. 1. 26. -4.
      -12. 141. 19. 35. 12. 26. -28. -30. -12. -10. -13. -15. 7. 8. -10.
      -2. -11. -19. -7. -68. -64. -38. -22. -40. 62. -27. 5. -17. 47.
      27. 39. 67. 105. 39. 16. 120. -24. 23. 7. -7. -52. 10. 10. 13. 19.
      -1. 165. 7. -11. -20. -8. -4. -40. -12. 0. -17. -23. -11. 10. -30.
      4. -6. -14. 12. -79. 25. 27. 68. 80. 28. -31. 121. 13. 46. 94.
      -40. 45. -7. -61. 3. -57. 11. 87. 25. 71. -83. 55. -41. -1. 1.
      -13. 146. -20. -8. -49. -53. -25. -44. -82. -4. 28. -30. 56. 5.
      17. -9. 15. 17. 9. -19. 59. 33. 47. 43. -49. -34. -22. -16. -22.
      -66. -28. -3. -81. 13. 64. -18. 50.</_>
    <_>
      480. 1408. 256. 1280. 1440. 288. 80. 688. 1040. 2368. 1312. 1632.
      144. 528. 848. 1408. 928. 448. 3392. 512. 608. 272. 144. 976.
      1232. 208. 624. 120. 296. 16. 100. 284. 4. 184. 200. 88. 272. 16.
      96. 60. 100. 20. 276. 124. 4. 72. 80. 48. 164. 52. 28. 24. 56. 80.
      124. 12. 148. 276. 252. 92. 164. 260. 84. 116. 20. 156. 156. 100.
      36. 116. 428. 76. 80. 480. 24. 80. 352. 104. 164. 268. 20. 96.
      440. 152. 220. 412. 180. 60. 100. 132. 40. 528. 0. 532. 100. 428.
      76. 68. 260. 92. 244. 52. 108. 132. 164. 344. 24. 56. 124. 28. 52.
      16. 8. 24. 964. 12. 4. 48. 376. 384. 300. 420. 340. 216. 24. 56.
      220. 100. 68. 268. 76. 92. 4. 4. 4. 808. 152. 160. 620. 124. 188.
      488. 216. 152. 48. 160. 208. 172. 28. 20. 340. 28. 20. 4. 36. 4.
      316. 292. 332. 756. 676. 52. 0. 392. 336. 144. 56. 112. 140. 116.
      52. 176. 80. 144. 35. 41. -9. 12. 0. -32. -9. -39. -7. -16. -34.
      12. -7. -13. 9. 17. -1. 3. 24. -4. -6. 21. -13. -3. 19. -13. 3.
      30. 16. 26. -58. 50. 8. -41. 29. -29. -1. -1. -1. -2. 0. 2. -5. 3.
      1. 27. -69. 1. -6. -54. 14. -12. -36. 4. -12. -40. -8. -3. -53.
      -5. 26. -52. 6. 24. -40. 6. 34. -18. 16. 42. 18. 20. 52. 34. -4.
      -35. 45. 15. -80. 50. -10. -17. 25. -15. -5. 5. -5. -5. -1. -1.
      44. -58. 16. 13. -37. 5. -4. -28. 4. -20. -24. 0. -10. -26. -2.
      47. -13. 15. 54. 26. 24. 49. 49. -1. 31. 17. -31. 13. -49. -35.
      -18. -82. 2. -47. -37. 43. -24. 14. 8. -11. 21. -1. -13. 13. -7.
      20. -46. -40. 50. -54. 32. 33. 11. 33. 7. 71. 27. -6. 104. 6. 27.
      75. -35. 25. -13. -53. 17. -97. -31. 25. -103. 25. 10. -46. 32.
      -5. -3. 11. 6. 18. 10. -19. 25. -3. -21. 13. -9. -15. 9. 5. -54.
      110. -34. 51. 45. -31. 48. -4. -18. 2. -54. -32. -25. -111. -25.
      -3. -131. 5. 16. -82. 44. 23. -1. 37. 32. 18. -18. 33. -9. -9. 26.
      2. 20. 7. 13. -9. -20. 6. 2. -34. 4. -4. -8. 2. 2. -43. -63. 45.
      -7. -45. -27. -6. -108. -36. -8. -122. 22. -8. -58. 42. 24. 6. 22.
      61. 29. 1. 63. 33. 3. 7. 29. -7. -17. -19. -41. 14. -92. -32. 21.
      -101. 23. 0. -60. 18. -18. -22. 20. -2. 2. 4. -22. -160. -24. 11.
      -139. 45. 19. -33. 61. 9. 23. -5. 13. -3. -21. 28. -42. -18. 25.
      -97. -37. 25. -175. -41. -5. -221. -5. -17. -185. 41. 11. -115.
      29. 80. -50. 36. 31. -1. 13. 1. 11. -1. 1. 9. -1. -23. -55. 23.
      29. -59. -27. 59. -107. -21. 125. -7. 121. 4. 126. 12. -80. 48.
      -90. -11. -41. 1. 13. -11. 29. 13. 41. 23. 31. 71. 7. 28. 66. -12.
      82. 20. -34. 49. -9. 5. 2. -2. 2. 1. 1. 1. 1. 3. 1. 1. 3. -1. 18.
      -18. -20. 154. -130. -92. 154. -84. 138. -115. 109. 55. -91. 83.
      -81. 33. -7. -9. 46. -6. 10. 35. 1. -3. 17. -1. 1. 35. -13. -13.
      60. -20. 6. 12. -6. 8. 2. 2. 0. 2. 6. 0. -1. 5. -1. -3. 3. -1. 55.
      -5. -7. 294. -10. 2. -17. 35. 43. -121. 129. 51. -68. 88. -92. 46.
      -14. -10. 40. -16. 8. 21. -5. 3. 14. -10. -8. 58. -26. -8. 38.
      -16. 18. 3. 3. 1. 0. 0. -2. -1. -1. 1. 1. 5. 5. 129. 91. 81. 222.
      98. -74. 14. 12. -12. -32. 38. 38. -126. 110. 34. -38. 70. -74.
      45. -7. -3. 30. -4. 6. 7. 3. 1. 32. -14. -18. 65. -23. 9. 16. -2.
      12. -1. -1. 1. 0. 0. 0. 2. -4. -4. 176. -42. -34. 184. -40. 36. 4.
      -2. 2. 4. -2. -2. -63. 25. 29. -119. 47. -7. 11. 9. -31. 44. -14.
      8. 12. -2. 4. 14. 2. 0. 69. -3. -5. 33. -3. 5. 1. 5. 1. 1. 7. 1.
      -3. 7. -1. 69. -67. -73. 189. -171. -31. 105. -103. 99. 3. -3. 1.
      -30. 2. 4. -109. 23. 17. -32. 28. -12. 44. 8. -8. 20. 4. 4. 12. 6.
      -2. 52. -8. -12. 45. -13. 7. 2. 4. 0. 1. 3. -1. -2. 4. 2. -3. 7.
      1. 76. -74. -82. 184. -176. -20. 103. -97. 99. -38. -10. -12. -76.
      -6. 16. -24. 30. 20. 29. 43. -7. 14. 26. -10. 4. 10. -6. 19. -17.
      -21. 48. -42. -4. 1. 1. -1. 1. 1. 1. 2. 4. 2. -3. 5. -1. -5. 5. 1.
      84. -74. -80. 190. -166. -12. 18. -110. 68. -59. -41. 1. 10. -26.
      14. 23. -11. 1. 8. -6. 4. 4. 4. 6. -1. 11. 1. 18. -14. -26.</_>
    <_>
      64. 416. 672. 208. 144. 112. 176. 208. 176. 896. 480. 160. 240.
      176. 144. 672. 288. 320. 96. 768. 960. 1312. 800. 928. 656. 208.
      336. 8. 536. 48. 4. 348. 236. 300. 4. 108. 240. 88. 16. 28. 44.
      28. 44. 28. 12. 120. 0. 40. 24. 56. 16. 220. 52. 12. 160. 32. 32.
      196. 28. 28. 12. 12. 44. 36. 28. 4. 128. 72. 48. 116. 100. 108.
      260. 44. 52. 24. 200. 104. 28. 164. 140. 12. 4. 20. 16. 8. 24.
      200. 56. 24. 276. 28. 52. 316. 76. 4. 112. 40. 32. 104. 0. 8. 28.
      12. 20. 48. 8. 40. 280. 104. 56. 152. 360. 176. 188. 316. 132.
      308. 284. 164. 28. 52. 68. 60. 4. 12. 100. 4. 12. 348. 28. 12. 56.
      80. 80. 68. 284. 124. 572. 308. 100. 160. 88. 120. 92. 12. 20. 28.
      92. 84. 464. 72. 104. 300. 612. 164. 424. 216. 232. 724. 36. 52.
      232. 40. 48. 76. 28. 36. 224. 104. 168. 684. 156. 116. -15. 37. 3.
      2. 44. 4. -17. 53. 5. -8. 64. 6. 155. -3. -73. 8. -52. 24. 32.
      -32. -4. -42. -46. -10. -76. -32. 24. 57. -9. -1. -37. -1. 9. 37.
      5. -3. -12. -4. -6. -31. -5. 5. -5. -1. -1. -4. 92. 8. 9. 103. 3.
      -6. 112. 6. -9. 111. -7. 9. 31. -73. 50. -24. 18. 26. -8. -2. -60.
      -18. -8. -30. -4. 22. 40. 2. -16. -17. -3. 11. 29. 3. -5. -22. -6.
      -4. -24. -8. 2. -1. -1. 5. 0. 24. -4. 11. 19. -1. -2. 16. -2. -19.
      11. -3. -75. -3. -11. 74. -8. 6. 20. -6. -4. -69. -11. -1. 6. 2.
      14. 10. 2. -14. 4. -2. 10. 19. 3. -5. -25. -1. 1. -18. 4. 4. 20.
      24. 16. -3. 17. 1. 6. 14. -4. -7. 7. -3. -18. 8. 4. -83. 15. 3.
      82. 20. 2. 3. 9. -13. -63. 3. 7. 24. 14. 4. -22. 0. -18. 26. -6.
      12. 9. 1. -5. -25. -5. -1. -19. -11. -5. 11. -41. -25. -9. -21.
      -7. 7. -23. 5. -1. -9. 9. -11. 3. 3. -80. 6. 0. 84. 6. 0. -24. -8.
      -14. -44. -10. 12. 27. 1. -1. -44. -4. -4. 45. -1. 7. 0. 2. -4.
      -27. -3. -1. -17. 3. 7. -24. 0. -10. -22. -22. -6. 25. -15. 13.
      16. 6. 8. -17. 5. -9. -88. -12. -8. 80. -24. -4. -43. -33. -5.
      -18. -24. 14. 30. -6. 4. -47. -1. 1. 54. 2. 2. -6. 2. -2. -30. -2.
      -2. -9. -3. 1. -42. -10. -8. -10. -40. 18. 48. -12. 10. 25. -1. 1.
      -36. -10. -10. -108. -32. -12. 50. -70. -26. -32. -80. 16. 25.
      -35. 29. 37. -3. 3. -41. 5. 5. 51. 5. -5. -13. -5. -5. -30. -8. 2.
      -12. -10. -4. -59. -23. -9. 23. -5. 15. 60. 12. 2. 18. 6. -8. -51.
      -7. -5. -97. 11. 23. 18. 28. -6. -17. 21. -1. 49. 15. -5. 29. -1.
      -11. -25. -1. 11. 41. 5. -5. -22. -4. -4. -28. -8. 0. -28. -20.
      -12. -64. -28. 4. 58. 40. 20. 52. 50. -10. 0. 30. -10. -60. 16.
      -4. -41. 45. 33. 5. 71. -7. -39. 43. -21. 37. 15. -7. 11. 1. -7.
      -7. 1. 7. 28. 0. -8. -25. -7. 1. -21. 1. 7. -35. 13. 5. -78. 0.
      -18. 74. 88. -4. 3. 45. -39. 2. 18. 12. -31. 63. 33. -46. 58. -38.
      -5. 17. -3. -58. 16. 2. 25. 13. -5. -4. 0. -8. 9. 1. 9. 12. 2. -8.
      -21. -3. 3. -14. 0. 0. -24. 6. 6. -111. -3. -15. 29. 51. -41. -30.
      16. 6. 17. 25. 3. 20. 46. 18. -83. 65. 1. -58. 16. -50. -39. -17.
      17. 22. 2. 2. -23. -7. -11. 30. -6. 12. 0. 2. -4. -23. -7. -5.
      -13. -11. 1. -28. -20. -10. -109. -13. 17. -5. 41. 7. -15. 57. 9.
      11. 57. -9. 18. 28. -20. -40. 50. 42. -111. 89. -3. -46. 62. -24.
      1. 15. -23. -29. -3. 5. 45. 5. 3. -9. 3. -5. -27. -1. 1. 11. 23.
      23. -50. 34. -12. -122. -8. -30. 10. -134. 8. 5. -115. 11. 46.
      -60. 44. 29. 15. 31. -4. 40. -6. -126. 22. -12. -80. 0. -10. -23.
      -11. -1. -17. -5. 7. 49. 3. 1. -24. -6. -10. -3. 7. 23. 60. 56.
      26. -73. 71. -11. -200. 12. -48. 25. -127. 7. 7. -129. -9. 80.
      -148. -10. 99. -119. 39. 26. -44. 36. -144. -14. -6. -90. -20. 0.
      -14. -10. 10. -7. 3. 3. 46. 2. -4. -39. -7. -5. 39. 7. 19. 76. 16.
      -10. -105. -15. -21. -218. -6. 30. 19. 1. -13. 45. 35. 47. 122.
      134. 52. 87. 135. -51. 31. 53. -31. -165. 7. -15. -87. -5. 3. -4.
      -2. 0. 2. 4. 6. 33. 1. -9. -47. -11. -3. 86. 14. 28. 71. 47. 5.
      -170. 8. -44. -134. 18. 54.</_>
    <_>
      1776. 528. 336. 704. 1152. 288. 1328. 1136. 304. 2064. 304. 48.
      992. 352. 0. 1616. 336. 16. 1424. 1520. 592. 432. 368. 560. 928.
      480. 672. 264. 200. 96. 324. 412. 116. 196. 412. 116. 32. 256. 40.
      348. 524. 308. 292. 668. 164. 272. 368. 136. 136. 80. 224. 360.
      224. 80. 48. 56. 360. 24. 400. 16. 400. 128. 256. 384. 56. 72.
      400. 24. 8. 40. 272. 128. 268. 156. 12. 488. 88. 80. 20. 12. 20.
      52. 60. 92. 136. 24. 176. 608. 16. 216. 84. 180. 84. 292. 228. 36.
      556. 204. 12. 48. 168. 48. 16. 64. 56. 40. 8. 0. 796. 20. 28. 60.
      516. 60. 368. 496. 40. 328. 320. 216. 88. 96. 8. 12. 4. 84. 4.
      124. 44. 784. 184. 16. 20. 388. 100. 204. 284. 204. 100. 68. 12.
      12. 12. 68. 56. 40. 40. 60. 12. 12. 496. 280. 304. 136. 248. 216.
      208. 256. 208. 144. 8. 56. 96. 24. 40. 24. 24. 8. 0. 40. 72. 92.
      212. 100. 1. -1. 1. -1. -1. -1. 86. 30. 32. 39. 53. -9. -61. 9.
      -35. 5. -25. 1. 10. -12. 12. 12. -4. -4. 3. 17. 25. 11. 45. 3. -3.
      43. -5. -10. 20. -18. -40. -36. -38. 25. -123. -49. -80. -94. 78.
      2. 0. 0. 17. 19. 19. 149. 69. 31. 38. 108. 8. -120. 92. -24. -11.
      51. -17. 9. 21. -13. 16. 16. 8. 33. 29. 5. 93. 113. 79. -12. 188.
      -4. -35. 177. -7. -94. 154. -16. -57. 105. -33. -35. 39. -33. 26.
      54. 24. 46. 88. 10. 61. -21. -119. 117. -69. 71. -74. 72. 70. -24.
      146. 4. -35. 119. -31. -14. 50. -38. 60. 34. 22. 134. 18. -38. -1.
      -5. 15. -64. -12. -22. -99. -23. 11. -23. 55. 67. -58. 132. 10.
      58. 68. 8. 2. 22. -54. -59. -33. -1. 129. -93. -59. 75. -73. 79.
      -17. 9. 3. -36. 42. 30. -38. 86. 14. 57. 75. -25. 60. 14. -36. 17.
      -19. 3. -47. 23. 39. -178. -28. -90. 111. -51. 67. -117. -53. -69.
      18. -38. -48. 5. -29. 57. -71. 17. -11. 7. -57. -63. 195. -79. 41.
      5. -19. 19. 1. 7. 7. -14. 24. 10. 5. 7. -27. 21. -23. -3. 25. -21.
      5. 9. 1. 17. -198. 88. 70. 61. 41. -117. -121. -11. 65. 25. -59.
      55. 25. -41. -37. -38. -34. 44. -19. 47. 37. 164. 12. -72. 58.
      -26. 34. 1. 1. -7. -3. -5. 1. -6. 12. 16. -8. 2. -26. 22. -32. -8.
      26. -40. 0. -77. 11. 51. -111. 7. -55. -16. -8. 40. 40. -42. -40.
      -3. -73. 9. 48. -22. 42. 26. 28. 8. 29. -27. -63. 130. -52. 38.
      -8. -16. -2. 2. -14. 4. 6. -14. -4. -16. 0. 18. 5. 9. -9. 9. -17.
      -17. -2. -10. 24. -201. -21. -35. -7. -87. -31. 0. -2. 0. 3. -5.
      -3. 45. -53. -45. 16. -116. -18. 16. -84. 50. 176. -26. 8. -20.
      -28. -10. 10. -34. 4. 13. -19. 11. 11. 1. 9. -10. 4. -6. -4. 2. 4.
      20. 4. -2. -203. 35. 33. -73. 33. -35. 0. -2. 0. 0. -2. 0. 0. -2.
      0. 2. 2. 4. 157. 97. 91. 78. 82. -106. -40. -34. -10. 18. -40. 4.
      52. -8. 28. -2. -2. -22. -10. -18. 6. 6. -6. 6. 15. -3. -3. -120.
      44. 50. -157. 45. -49. -15. 77. -15. -17. 45. -17. -10. 18. -10.
      93. 95. 87. 157. 91. -91. -51. -23. -23. 20. 24. 70. 17. 89. -5.
      18. 22. -62. -21. -37. 3. 9. -21. 13. 8. -12. -4. 9. -19. -3.
      -109. -61. -39. -156. -50. 50. -20. 136. 10. -19. 161. 15. -5.
      191. 15. 108. 134. -72. -8. -12. -74. -10. -22. 64. 88. 40. -2.
      -5. 21. -17. -38. 10. 6. -10. 24. 8. 7. 17. -15. 4. 2. 0. -36.
      -40. -42. -155. -89. -7. -57. -47. 49. -8. 6. 2. -6. 6. -2. 28.
      22. 18. 9. 13. -27. -57. 11. 25. 54. 36. 0. 53. 3. -33. -26. -34.
      -4. -22. -28. 10. -1. -17. 1. -1. -9. 7. -2. -8. -6. -69. -5. 9.
      -107. 59. 55. -18. 104. -10. -15. -7. -9. 7. -1. 15. 41. 9. -5.
      -10. 12. 8. -19. 33. 13. 27. 19. -27. 8. -20. -12. -16. -18. 14.
      -3. 5. 9. -2. 12. -2. -2. 2. -8. -3. -1. 5. -29. 35. 31. -26. 92.
      26. -14. 132. 14. -50. 6. -26. -5. -47. -27. 65. -45. 29. 10. -4.
      12. -4. 10. 2. 5. 17. 5. -7. 19. -3. -5. 13. -3. -4. 0. -10. -6.
      -12. -2. -1. -5. 9. 6. 8. 4. 2. 12. 0. 1. 13. 1. 1. 15. 1. -121.
      -19. -45. -54. -86. -22. 51. -151. -43. 49. -167. 27. 62. -76. 64.
      25. 3. 15. -14. 14. -4. -18. 0. -10. -20. -16. -6. -6. -20. 2. 16.
      -10. 8. 10. -2. 0. 2. -2. 0. 2. -2. 0. 0. -4. -2.</_>
    <_>
      256. 2624. 320. 592. 1904. 1040. 688. 752. 112. 192. 512. 256.
      288. 608. 160. 848. 176. 272. 736. 256. 288. 1248. 1152. 1120.
      1200. 2192. 80. 44. 52. 68. 72. 56. 72. 92. 76. 52. 172. 12. 12.
      564. 12. 12. 36. 4. 28. 104. 184. 152. 80. 176. 56. 140. 236. 4.
      176. 456. 216. 116. 372. 300. 508. 28. 44. 12. 20. 4. 52. 20. 4.
      136. 848. 0. 156. 828. 20. 216. 632. 176. 236. 636. 180. 28. 380.
      436. 4. 36. 20. 256. 184. 200. 388. 708. 252. 28. 308. 148. 48.
      152. 8. 108. 196. 52. 292. 132. 116. 76. 36. 52. 336. 32. 120.
      248. 440. 392. 216. 288. 336. 40. 720. 96. 76. 732. 84. 136. 336.
      312. 132. 20. 4. 164. 68. 52. 188. 76. 44. 316. 116. 236. 104.
      384. 32. 276. 132. 284. 248. 352. 200. 228. 460. 92. 96. 384. 16.
      232. 8. 0. 80. 8. 0. 120. 56. 48. 540. 84. 20. 16. 96. 32. 288.
      160. 32. 44. 228. 36. 6. -54. -6. -27. -33. 27. -12. 4. 10. 17.
      11. -3. -20. -14. -22. -26. -22. 14. 0. -6. 2. -25. -5. -1. 128.
      -4. 2. 94. -2. 0. -28. 0. 2. -50. 6. 4. 96. 14. 4. -113. 29. 11.
      4. 38. -2. 0. 0. 0. -2. -2. -2. 2. 0. 4. 0. -10. -14. -37. -19. 5.
      -5. -7. 7. 0. -2. -2. -24. -2. 2. 132. 2. 2. 91. 1. -3. -28. -4.
      -2. -45. -5. 1. 105. 1. 5. -88. 20. 14. -1. 31. -3. 8. -8. 8. 1.
      5. 5. 1. 5. -5. -27. -13. -13. -20. -14. 12. 1. -3. -1. -1. -3. 1.
      -22. -2. 0. 136. 0. 2. 86. 0. -2. -29. -1. 1. -45. -1. -1. 113. 1.
      3. -44. 34. 30. -2. 66. 2. 37. 3. 21. 23. 41. 17. -23. 39. -19.
      -62. -2. -22. -7. -23. 1. 23. 1. 23. 5. 29. 5. -54. 2. -32. 153.
      -15. 15. 83. -1. -1. -27. -1. 1. -47. -1. -1. 117. -1. 1. -25.
      -11. -11. 9. -13. 9. 94. 60. 36. 9. 65. -31. -43. 33. -1. -41. 75.
      43. 58. 182. 64. 82. 282. 36. -25. 283. -35. -160. 174. -74. 136.
      68. -32. 61. 15. -21. -25. -5. 1. -48. -4. 0. 112. -10. -6. -58.
      -38. -22. 34. -44. 16. 52. 138. -78. 8. 90. 30. 32. 196. 76. 11.
      281. 9. 51. 219. -71. 44. 74. -74. -37. 23. 23. -130. 150. 104.
      38. 188. -66. -28. 54. -68. -20. -10. 4. -58. -16. -10. 132. 0.
      26. -23. 83. 57. 20. 110. -30. 21. 89. 47. 8. 106. -30. 32. 0.
      -76. -37. -133. -57. -47. -217. -27. 33. -181. 63. 3. -101. 17.
      -4. -62. 22. -24. -36. 4. -84. -20. 12. -14. -6. 2. -66. -2. 2.
      159. 1. 1. 39. 7. 5. -6. 16. 4. -17. -251. -85. 74. -240. 96. 60.
      -40. 104. -103. 55. -9. -55. 65. 19. 73. 61. -23. 9. 27. -11. 12.
      10. -6. -25. -1. -5. -73. -7. -1. -4. 0. 8. -49. 23. 15. 144. 22.
      -16. 32. -6. -12. -3. -19. -1. -54. -66. 48. 107. -81. -63. 158.
      -150. -6. -39. -83. 73. -19. 7. 17. 22. -4. -28. 4. -26. 6. -25.
      -51. -31. -32. -84. -2. -31. -43. 43. 6. 2. 2. -32. 6. 2. 118. -2.
      -10. -2. -34. -22. -4. -56. 0. 4. 258. 10. 24. 248. -20. 67. 143.
      -85. 0. 24. -34. -31. -39. -29. -33. -95. -27. -31. -163. -41.
      -56. -204. 0. 29. -141. 63. 49. -41. 37. 7. -5. -1. -28. -4. 2.
      107. -3. -1. -21. -1. 3. -6. 0. -2. 6. -36. -8. 1. -47. -3. -78.
      -110. -60. -88. -224. -54. -21. -239. 39. -18. -158. 42. -13. -57.
      59. -23. 35. 33. 64. 40. -28. 76. 2. -10. 8. -6. 2. -24. -2. 2.
      109. 3. 3. -26. -2. -8. -2. -4. 6. -2. 12. 0. -13. 1. -11. -108.
      20. 30. -72. 120. 70. 26. 198. 8. 15. 197. -9. -1. 141. -47. -27.
      57. -37. -30. -46. -66. 45. -133. -21. 59. -105. 49. 9. -25. 31.
      67. -39. -45. -12. -62. 22. 19. -25. 15. -1. -1. 1. -28. -4. -4.
      -61. 9. 17. 3. 31. 5. 15. 17. -19. 0. -8. -6. -52. -18. -4. -60.
      -18. 4. -105. -23. -9. 18. -38. -6. 91. -61. -17. 30. -88. -10.
      12. -108. -10. 5. -123. -5. 15. -147. -19. -1. -3. -1. -33. -5.
      -1. -43. -5. 1. 7. -5. -1. -5. -7. -1. -6. -8. 0. -57. -9. -1.
      -50. -4. 6. -119. -3. -5. 15. -5. 3. 75. -1. 1. 23. 3. 3. 1. 5.
      -1. 1. 5. 1. -1. 9. 3. -1. 1. 1. -36. 0. -2. -44. -4. -2. 6. -6.
      0. -4. -4. 2. -15. -11. -9. -52. -14. 6. -42. -6. 2. -124. -4. 0.
      21. -1. 3. 76. 2. 0. 26. 2. 0. 0. 2. 0. 1. 1. -1. 1. -1. -1.</_>
    <_>
      2144. 672. 0. 1920. 832. 160. 1840. 944. 48. 848. 144. 1296. 672.
      64. 1088. 896. 2016. 992. 192. 320. 640. 48. 496. 464. 224. 288.
      320. 576. 128. 40. 488. 72. 96. 468. 12. 36. 72. 32. 16. 436. 76.
      92. 208. 88. 80. 48. 8. 0. 348. 20. 188. 712. 80. 128. 588. 36.
      84. 12. 52. 68. 368. 8. 24. 292. 36. 4. 40. 32. 8. 356. 508. 516.
      916. 68. 76. 396. 420. 276. 44. 660. 36. 572. 444. 180. 292. 268.
      4. 212. 516. 244. 640. 64. 232. 556. 140. 436. 220. 676. 100. 156.
      628. 148. 308. 36. 444. 124. 572. 164. 232. 512. 224. 216. 88.
      192. 72. 232. 48. 148. 356. 172. 188. 412. 116. 24. 136. 160. 32.
      32. 8. 16. 32. 8. 92. 60. 116. 36. 116. 60. 12. 44. 12. 28. 12.
      44. 176. 48. 8. 16. 48. 8. 20. 60. 4. 296. 376. 88. 64. 128. 160.
      8. 40. 8. 36. 28. 20. 208. 32. 40. 24. 104. 32. 4. 156. 20. -53.
      -19. 15. -12. -12. -8. 385. -21. -1. 24. -12. 10. -239. 3. 5. 16.
      6. -2. -7. 3. -1. -9. -1. -3. -18. -6. -2. -101. -1. 7. -45. 1.
      -5. -8. -4. 0. -5. -7. -3. -2. -10. 0. -15. -9. 1. -41. -3. -3.
      -16. -2. 4. 367. -15. -17. 47. -19. 13. -224. 4. 10. 3. 3. -11.
      -9. -9. -1. -11. -9. 1. -17. -5. 3. -89. 3. 5. -54. 4. -4. -8. 0.
      0. 3. 11. 11. -9. 15. -7. -14. 8. 0. -31. -19. 13. -6. 0. 6. 311.
      -33. -39. 91. -41. 31. -201. 3. 13. -23. 1. -15. -7. -11. 3. -6.
      -4. 4. -9. 5. 5. -75. 19. 9. -13. 73. 45. -66. 60. -58. 3. -9.
      -11. -10. -14. 6. -9. -3. 5. -15. -5. 3. 2. 0. 2. 234. -36. -38.
      155. -41. 33. -181. -1. 7. -69. -25. -31. 8. -44. 12. 3. -27. 5.
      -4. -22. 0. -63. -19. 3. 25. -23. -7. -111. -17. 13. -7. -3. 1.
      -4. -2. 0. -4. -2. 0. -106. 112. -94. -5. 9. -9. 196. 0. 0. 183.
      -5. -5. -140. 24. 34. -111. 47. -11. 22. 38. 2. 9. 41. 1. 2. 48.
      6. -81. 33. -21. -36. -42. -54. -52. -50. 46. -6. -4. 0. -4. -4.
      0. -4. -4. 0. -123. 203. 77. -150. 144. -136. 165. -23. -31. 197.
      -35. 19. -54. 36. 52. -63. 147. 59. 9. 191. -15. 0. 166. -10. -4.
      144. -12. -129. 105. -27. -132. 36. -42. -6. -6. 0. -1. -1. 5. 17.
      25. 21. 27. 77. 31. 3. -7. 49. -249. 79. 37. 59. 41. -75. 223.
      -27. 7. -8. -26. -6. -33. -61. -29. 15. -69. 21. 4. -34. 14. -19.
      -23. -3. -114. 16. 42. -130. 102. 44. -7. 145. -1. 1. 141. -3. 76.
      176. 38. 75. 231. 17. 55. -29. 3. -125. 61. 87. -104. 60. -88.
      235. -23. 5. -42. -46. -28. -137. -149. -75. 90. -170. 54. 25.
      -109. 7. -35. -115. -13. -5. -61. 67. -40. 52. 46. -2. 104. 6. 0.
      112. 2. 58. 58. -56. 46. -44. -46. 58. -20. 0. -39. -21. -1. -183.
      -13. 9. 142. -102. -98. -38. -168. 32. -107. -31. 105. 88. 18.
      -56. 37. -33. 5. -7. 13. 41. 34. 26. -28. 6. -2. 0. 5. -1. 1. 2.
      0. 0. 1. -1. -1. 1. -1. 1. 60. -10. 2. -34. -2. 6. -111. 67. 63.
      34. 120. -10. 1. 117. 7. -6. 120. -4. 24. 108. -8. 29. 87. -13.
      17. 57. -17. -15. 19. -21. 5. -3. -1. 5. -5. -1. 3. -5. 1. 1. -3.
      1. 1. -3. -1. 54. -10. -8. -13. -3. 15. -42. 18. 6. 23. 23. -1. 9.
      23. 1. -4. 30. 6. 11. 31. -5. 12. 22. -4. 2. 20. 2. -47. 11. -11.
      1. -3. -3. 4. -6. 0. 3. -7. -1. 3. -7. 1. 1. -5. 1. 47. -11. 1.
      21. 9. 19. -35. 29. 1. 8. 16. -14. 10. 2. 0. 2. 2. 0. 4. 0. -2. 5.
      -5. -3. 4. -8. 0. -55. -5. 3. -3. -3. -1. 3. -5. -1. 2. -6. 0. 3.
      -7. -1. 2. -8. 0. 54. 4. 6. 37. 7. -3. -25. 13. 9. -16. 12. -10.
      8. 0. -2. -2. -6. -4. -3. -15. -5. -2. -24. -4. 1. -31. -3. -41.
      -23. 11. -3. -11. 1. 1. -11. -1. 3. -11. 1. 2. -10. 0. 2. -10. 0.
      60. -38. 0. 21. -51. -13. 9. -39. 25. -17. -5. 9. 5. 3. -1. -2. 6.
      4. -4. 14. 4. -6. 18. 0. -9. 11. -7. -40. -6. -10. -10. -24. -8.
      8. -24. 8. 5. -15. 1. 3. -13. 1. 2. -12. 0. 52. -160. -8. 22.
      -154. 14. 94. -80. 60. 7. -5. 15. 5. 11. 1. 1. 11. -1. 0. 10. 0.
      -6. 10. 0. -13. 13. 3. -42. 24. 8. -28. 22. -10. 3. -1. -13. -6.
      -26. -12. -2. -44. -6. -3. -55. -5.</_>
    <_>
      1120. 416. 416. 1456. 80. 912. 1056. 1024. 32. 1408. 1632. 128.
      448. 512. 992. 752. 752. 272. 1072. 304. 208. 1072. 464. 368. 304.
      656. 176. 24. 200. 16. 12. 188. 28. 352. 0. 160. 216. 48. 112.
      400. 120. 56. 104. 152. 24. 72. 24. 104. 12. 4. 4. 28. 20. 12.
      536. 56. 24. 8. 16. 96. 316. 140. 28. 212. 84. 84. 96. 128. 128.
      12. 188. 4. 144. 288. 104. 468. 300. 92. 172. 124. 84. 156. 92.
      132. 196. 324. 100. 36. 236. 188. 12. 236. 4. 268. 260. 20. 324.
      228. 52. 348. 84. 92. 40. 8. 16. 24. 48. 72. 92. 180. 60. 68. 228.
      52. 184. 176. 104. 196. 4. 76. 500. 140. 60. 84. 172. 28. 52. 44.
      100. 52. 76. 20. 108. 4. 12. 132. 44. 52. 64. 40. 56. 384. 160.
      176. 64. 288. 48. 56. 144. 96. 112. 88. 40. 48. 16. 144. 288. 24.
      104. 88. 16. 96. 156. 60. 52. 44. 20. 28. 72. 16. 32. 152. 16. 0.
      -36. 22. -22. 6. -4. -4. 3. -21. -13. -32. 8. 42. 82. 24. -26.
      -24. -16. -14. -128. -16. 14. -22. 6. 8. 7. 1. -13. -95. -19. -7.
      -45. -13. 13. -16. 16. 16. 37. 33. 1. -40. -24. -58. 128. -48. 34.
      -29. 35. 29. 0. 62. -2. -6. 64. 4. 4. 62. -6. 27. 27. -29. -56.
      -20. -18. -97. -21. 17. 0. 10. 14. -24. 6. -18. -84. 6. 18. -30.
      26. 2. 25. 53. 25. -21. 19. -59. -83. -25. 15. 163. -9. 1. 0. 0.
      0. -2. 0. 0. -2. 0. 0. -2. 0. 0. -1. 1. 1. -94. -18. -20. -67.
      -25. 13. 30. 4. 16. -43. 19. -1. -60. 24. 6. -11. 47. 17. 23. 37.
      -27. -100. -10. -20. -31. 7. 37. 148. 28. -16. 0. 0. 0. -2. 0. 0.
      -2. 0. 0. -2. 0. 0. -2. -2. -2. -125. -15. -11. -34. -6. 20. 44.
      12. -2. -47. 7. -3. -59. -1. -5. 13. 1. 7. -34. -22. -30. -103.
      -35. 17. 56. 32. 50. 90. 40. -42. -1. -1. -1. -2. -2. 0. -2. -2.
      0. -2. -2. 0. -13. -11. -9. -132. -16. 4. -4. -2. 10. 39. 5. -3.
      -29. 23. 21. -49. 59. 15. -19. 35. -39. -50. 10. 14. -30. 80. 56.
      62. 92. -44. 22. 22. -26. -1. 5. 1. -2. 6. 0. -2. 6. 0. -4. 4. -2.
      -40. -16. -18. -114. -20. 14. 11. -1. 5. 31. -1. -5. -7. -5. 1.
      -20. 10. 14. -33. 49. 25. -25. 85. 11. 6. 76. -20. 1. 39. -17.
      -18. 8. -14. 0. -104. 0. -1. -103. 1. 0. -100. 2. -42. -134. -36.
      -41. -153. 17. -120. -156. -20. 91. -101. 75. 22. -30. -4. -5.
      -33. 1. -2. -28. 4. -5. -21. 3. -15. -19. -1. -13. -19. 1. -18.
      -20. -2. -26. -16. 6. 5. 1. 5. -2. 4. -2. -6. -6. -8. -74. -10. 4.
      -7. 11. 17. -169. -1. -29. 186. -10. 20. 11. 3. -7. -4. -4. 0. 10.
      4. 8. -2. 12. 0. -20. 8. -4. 23. 39. 35. -22. 72. -2. -18. 72. 2.
      18. -16. 8. -3. -7. 1. -20. -12. -6. -65. -13. 5. 8. -10. -2.
      -182. 4. 16. 222. 36. 16. 1. 49. -3. -5. 45. -1. -4. 22. -22. -15.
      -13. -13. -8. -10. 16. 52. 0. -6. -26. -8. -2. -12. -6. 4. -11.
      -39. -37. -19. -93. -17. 22. -62. 48. -53. -7. 7. -2. -8. -8.
      -145. 5. 21. 203. -9. -35. 16. -26. 18. 2. 0. 8. -3. 31. 23. -23.
      59. 5. -13. 43. -21. 16. -8. -30. -16. -26. 12. -9. -15. -1. -44.
      8. 4. -30. 18. 6. 45. -1. -25. -33. -13. 13. -20. -10. -10. -101.
      3. 23. 163. 21. -5. 58. 40. 24. -2. 52. -12. -11. 9. -31. -32.
      -36. -14. -17. -33. 17. -7. -9. 7. -10. -8. -6. -10. -14. 0. -45.
      11. -5. -14. 16. 10. 1. 7. -19. -15. -7. 5. -42. -14. -12. -55.
      -3. 23. 133. -5. -25. 30. -82. -52. 5. -115. 19. -12. -66. 30.
      -52. -42. -6. 25. -23. 25. -8. -6. -8. -22. -20. -6. -5. -21. 5.
      -74. -38. -24. 26. -32. 30. -28. -12. -10. 0. -12. 10. -63. -11.
      -9. -11. 1. 21. 84. -2. -24. 0. -4. 22. 16. 10. -8. 16. 0. -2.
      -54. 2. 4. 51. 7. 1. -28. -4. -12. -22. -10. 6. -4. -8. -4. -1.
      53. 97. 49. 143. -7. -96. 78. -58. -2. 8. -12. -85. -17. -13. 34.
      -6. 24. 65. 23. 5. 8. 14. -14. 8. 0. 0. 6. -8. -8. -40. -6. 10.
      50. 2. -2. -33. 7. 7. -18. 12. -2. -9. 9. -1. 81. -149. -15. 63.
      -143. 21. -110. -78. 44. 2. -18. 16. -89. 7. 9. 60. 18. 2. 58. 8.
      -12. -4. -2. 2. 3. -5. -5. -10. -18. -8. -18. -14. 12. 44. -6. -4.
      -19. -3. 7. -21. 3. -1. -16. -4. -6.</_>
    <_>
      592. 560. 1104. 2544. 400. 144. 1632. 288. 32. 816. 1264. 880.
      1488. 944. 1200. 832. 576. 832. 1088. 352. 1024. 112. 496. 176.
      32. 288. 32. 88. 160. 56. 256. 136. 80. 684. 116. 60. 484. 148.
      28. 448. 168. 48. 36. 252. 36. 288. 392. 104. 76. 76. 108. 116.
      124. 60. 544. 144. 80. 652. 84. 140. 592. 40. 96. 36. 100. 36.
      260. 68. 132. 260. 1140. 76. 392. 728. 336. 204. 132. 260. 904.
      16. 112. 672. 112. 16. 48. 176. 48. 260. 92. 132. 152. 264. 184.
      260. 388. 468. 476. 436. 420. 1000. 0. 16. 464. 176. 192. 140.
      412. 44. 428. 420. 36. 176. 416. 144. 260. 220. 52. 664. 64. 232.
      564. 124. 420. 328. 600. 56. 252. 588. 68. 172. 228. 292. 296.
      176. 24. 368. 144. 56. 248. 96. 184. 84. 220. 60. 180. 364. 204.
      196. 444. 124. 4. 196. 124. 176. 72. 96. 416. 32. 8. 56. 80. 120.
      48. 128. 72. 16. 48. 8. 36. 4. 36. 128. 32. 0. 95. 43. 35. -9. 79.
      1. -5. 83. 3. -60. 62. -24. -40. 18. -20. 23. -25. -23. 364. -28.
      20. 6. -4. 4. -148. -78. -78. -29. -161. -5. 4. -180. -14. 1.
      -199. -5. -4. -206. -2. -19. -225. -17. -50. -286. -44. 84. -82.
      -46. -7. -127. 1. 4. -120. 6. -52. -82. 32. -37. -27. 23. -11.
      -15. -11. 386. -24. 2. 20. -12. 10. -217. 7. 9. -23. 27. 11. -8.
      40. 2. -4. 42. 0. -11. 37. -5. -36. 32. 0. -108. 18. -14. 54. 70.
      16. -25. 67. -19. 13. 51. 3. -39. 35. -19. -24. 6. -10. -20. -2.
      2. 376. -12. -12. 40. -14. 10. -199. 5. 9. -20. 6. -8. -9. -5. -3.
      -6. -10. -2. -15. -11. 1. -28. -2. 8. -125. 3. -3. -25. 5. -95.
      -25. -71. 19. 10. -58. -6. -36. -42. 22. -27. -13. 7. -13. -1. 5.
      332. -28. -32. 76. -34. 26. -176. 6. 14. -49. -1. -21. -5. -15. 7.
      -7. -7. 1. -10. -2. 4. -16. 6. 4. -100. 38. 28. -84. -64. 36. -4.
      -26. 2. 2. -26. -2. -9. -23. 5. -13. -11. 7. -4. 0. 4. 251. -45.
      -49. 145. -51. 43. -145. 9. 17. -104. -8. -34. 9. -35. 7. -1. -23.
      5. -4. -16. 2. -8. -10. 4. -48. 18. 24. -48. 344. 0. -53. 293.
      -51. -57. 185. -57. -62. 70. -58. -12. 6. -6. 1. 1. 1. 201. 1. -1.
      183. -5. -5. -114. 4. 14. -167. -11. -29. 25. -31. 9. 2. -24. -2.
      -9. -33. -7. -11. -47. -7. -41. -71. -17. -18. -16. 30. -50. 68.
      54. -49. 187. 65. -89. 283. 31. -138. 194. -120. -35. 37. -37.
      181. -19. -19. 192. -24. 14. -60. 30. 40. -146. 120. 50. 27. 163.
      -7. 10. 166. 10. 0. 192. 16. -10. 216. 8. -177. 105. -119. -12.
      -76. -24. 23. -81. 19. -7. -85. -23. -6. -56. 52. -124. 130. 134.
      -196. 140. -124. 131. -15. -31. 220. -32. 14. -10. -8. 10. -50.
      48. 46. 8. 82. -12. 6. 56. -14. 1. 27. -15. -11. 3. -9. -290. 0.
      6. -59. -57. -23. 37. -85. -5. 2. -58. 32. 37. -35. -9. 28. -26.
      18. -245. 67. 75. 13. 55. -87. 242. -24. 8. -5. -21. -5. -73. -95.
      -69. 17. -143. 21. 43. -71. 51. -13. -19. 1. -31. -29. -11. -157.
      87. 127. -45. -93. 37. 43. -45. 11. 41. -27. 7. 30. -18. 2. 42.
      -20. -4. -98. 48. 72. -145. 49. -71. 253. -19. 3. -13. -19. -3.
      -202. -82. -60. 47. -133. 9. 83. -135. -11. -23. -157. -11. 2.
      -124. 44. 11. -39. 41. -35. -37. -27. 78. -40. 24. 39. -25. -9.
      39. -27. 7. 39. -19. 1. -32. -24. -6. -190. -4. 26. 134. -100.
      -122. -5. -211. 11. -117. -55. 145. 47. 81. -9. 59. 59. -13. -4.
      76. 30. 19. 79. -27. 24. 24. -28. -54. -20. 8. 97. -17. -5. 23.
      -29. -7. 59. -23. 13. 45. -5. 5. -36. 2. 2. -105. 63. 59. 18. 128.
      6. 8. 136. 2. 9. 119. -19. 23. 85. -15. 33. 57. -13. 14. 32. -12.
      -14. 14. -6. -9. 3. -5. -45. 3. 1. 80. -8. -12. 20. -16. 4. 74.
      -10. 2. 45. -13. -5. -19. -3. 15. -40. 18. 6. 21. 21. -3. 12. 20.
      2. -4. 28. 6. 6. 32. -2. 14. 24. -6. 3. 19. 1. -23. 17. -3. -24.
      4. -10. -40. 20. 4. 59. 15. -9. 33. 15. 9. 58. 6. -18. 41. -11. 1.
      12. 6. 16. -33. 23. 1. 9. 15. -9. 12. 4. -2. 3. 3. 1. 3. 3. -1. 6.
      0. -2. 3. -3. -1. -24. -2. 2. -36. -2. -2. -61. 39. -25. 25. -11.
      -25. 51. -27. 9. 46. -12. 6. 60. 12. 18. 31. 33. 3. -32. 36. 0.
      -18. 18. -18. 8. -2. -2. 1. -7. -3. -4. -16. -6. 0. -26. -4. 0.
      -32. -2. -17. -29. 5. -30. -16. 8.</_>
    <_>
      1024. 1440. 768. 592. 1232. 976. 848. 624. 368. 928. 2688. 864.
      848. 2544. 720. 144. 2192. 1072. 64. 128. 0. 64. 64. 64. 912. 16.
      16. 16. 16. 8. 16. 8. 0. 172. 4. 12. 16. 40. 24. 40. 88. 152. 120.
      80. 160. 28. 92. 12. 12. 20. 4. 16. 24. 0. 208. 0. 24. 24. 8. 32.
      76. 4. 36. 192. 56. 88. 24. 152. 8. 288. 384. 304. 268. 972. 284.
      68. 1092. 164. 400. 584. 344. 40. 240. 0. 272. 408. 168. 96. 704.
      128. 316. 708. 276. 292. 172. 260. 80. 72. 16. 376. 312. 368. 44.
      676. 4. 96. 328. 344. 88. 152. 136. 24. 24. 16. 20. 52. 12. 28.
      28. 36. 0. 16. 8. 32. 40. 16. 140. 164. 108. 164. 156. 116. 8. 8.
      0. 4. 12. 4. 12. 12. 4. 4. 12. 4. 16. 16. 0. 28. 12. 4. 320. 48.
      40. 8. 16. 0. 0. 16. 0. 8. 24. 8. 4. 28. 4. 16. 24. 0. 12. 12. 12.
      404. 44. 44. -2. -2. 0. -3. -1. 1. -2. 0. 0. -3. -1. -1. -3. -1.
      1. -17. 1. 1. 119. 5. 3. -16. 6. -2. -109. 5. 1. 106. 8. 2. -7.
      15. 5. -8. 22. 2. 4. 20. -4. 18. 2. -14. -59. 11. 23. -3. -3. -1.
      -1. -3. 1. -2. -2. 0. -3. -1. 1. -2. 0. 0. -16. 0. 0. 122. 0. 0.
      -16. 2. 2. -104. 8. 4. 61. -35. -47. 6. -74. 8. -3. -63. 3. 20.
      -40. 20. 11. -13. 7. -34. -4. 2. -4. -2. 0. 0. -2. 0. -2. -2. 0.
      -2. -2. 0. -2. -2. 0. -15. -1. 1. 123. 1. 1. -9. 7. 5. -101. 11.
      -1. 16. 12. 2. 15. 15. 1. -2. 14. -2. 126. 98. 86. -37. 129. -55.
      -59. 47. -27. -2. -2. 2. -2. -2. -2. -2. -4. 0. -1. -3. 1. -2. -2.
      0. -12. 0. 2. 123. 1. -1. -13. -9. -9. -85. -1. 17. 14. 12. -4.
      13. 5. -3. 10. 16. 14. 106. -76. -106. -47. -137. 45. -53. -59.
      33. -1. -3. -1. -3. -3. 1. -2. -2. 0. 0. -2. 0. -4. -4. -2. 18.
      22. 28. 82. 10. -40. -38. -46. -16. -34. -28. 34. 5. 1. -5. 5. -9.
      -5. 15. -23. -9. 15. -17. 15. 4. 4. 6. -40. -10. -20. 7. 5. 9. 21.
      37. 23. 23. 85. 25. 32. 142. 32. 28. 208. 34. 76. 272. 30. -51.
      209. -93. -123. 47. -69. 3. -19. 3. 6. -10. 6. 17. 13. 17. 47. 71.
      41. 33. 115. 3. 20. 128. 10. -8. 190. 52. 25. 31. 9. 65. 61. 21.
      140. 174. 92. 54. 256. -10. 30. 214. -32. 26. 102. -80. -130. 36.
      14. -131. 111. 61. 21. 187. 15. -45. 145. -57. 47. 101. 13. 71.
      97. -17. 31. 75. -5. 63. 103. 33. -44. 48. -88. 13. 231. -21. 50.
      174. -36. 125. 31. -107. 27. -93. -17. -4. -112. -2. -35. -95. 19.
      -67. -27. 49. -50. 42. 20. 49. 75. 13. -74. 116. 28. 24. 108. -36.
      -29. -11. -83. 13. -107. -13. 104. -112. 8. -55. -27. 77. -4. 0.
      4. 8. -2. -6. 9. -17. -9. 5. -31. -5. -3. -33. 3. -9. -23. 7. -11.
      -9. 7. -12. 16. 18. 30. 2. -32. -24. -8. 22. -7. 19. 5. -57. 79.
      55. -3. 131. -3. 14. 30. -98. -47. -137. -69. 1. -1. 1. 1. -1. -1.
      0. -2. 0. 2. 0. 2. 0. 2. 0. -1. 3. 1. -1. 7. 3. 3. 7. -3. -1. 5.
      1. -2. 6. 0. -2. 6. 0. -3. 5. -1. -5. 5. 1. -72. 18. 12. -62. 84.
      54. 2. 0. 0. 0. 0. 0. 0. 0. 0. 3. -1. -1. 0. -2. 0. 1. -1. 1. 1.
      -1. -1. 1. -1. 1. -1. -1. -1. -2. -2. 0. -2. -2. 0. -5. -3. -1.
      -4. -4. 0. -63. -7. -3. -10. -12. -2. 2. -2. 0. 1. -1. 1. 0. 0. 0.
      1. -1. -1. 0. -2. 0. 2. -2. 0. 0. -2. 0. 1. -3. -1. -1. -3. 1. -2.
      -2. 0. -2. -2. 0. -6. -2. 0. -2. 0. 2. -70. -2. -4. -16. -10. -4.
      2. -2. 0. 2. -2. 0. -1. -3. -1. 1. -3. 1. 0. -2. 0. 2. -2. 0. 0.
      -2. 0. 0. -2. 0. 0. -2. 0. -3. -3. -1. -1. -3. 1. -4. 0. 2. -1. 1.
      -1. -74. 0. 0. -32. -12. -12. 2. -2. 0. 2. -2. 0. -2. -2. 0. 1.
      -3. -1. 1. -3. 1. 1. -3. -1. 0. -4. 0. 1. -3. 1. -1. -3. -1. -3.
      -3. 1. 0. -2. 0. -1. -1. 1. -1. 1. 1. -76. 0. -2. -54. -12. -10.
      1. -3. -1. 2. -4. 0. -1. -3. 1. 1. -1. 1. 1. -1. -1. -1. -3. -1.
      1. -3. 1. 1. -3. -1. -1. -3. 1. -2. -2. 0. -1. -3. -1. 0. -4. 0.
      0. -4. 0. -81. -7. -3. -63. -9. 1.</_>
    <_>
      1216. 1312. 1504. 160. 2784. 32. 736. 1376. 1376. 224. 288. 512.
      32. 384. 160. 1920. 352. 192. 336. 688. 400. 64. 1216. 128. 944.
      2128. 784. 36. 812. 36. 532. 508. 268. 336. 240. 0. 232. 520. 280.
      28. 532. 268. 80. 280. 16. 176. 264. 32. 160. 656. 160. 348. 44.
      452. 148. 596. 188. 264. 536. 248. 148. 436. 148. 32. 456. 128.
      256. 72. 400. 188. 404. 132. 36. 132. 140. 24. 24. 16. 16. 40. 0.
      4. 36. 4. 160. 32. 0. 744. 120. 88. 12. 36. 44. 164. 68. 12. 0.
      64. 8. 16. 72. 0. 4. 76. 4. 184. 104. 24. 800. 96. 32. 32. 64. 0.
      152. 64. 0. 32. 40. 24. 16. 16. 32. 32. 80. 32. 160. 64. 48. 512.
      240. 256. 16. 48. 16. 84. 132. 68. 28. 228. 28. 24. 280. 24. 36.
      332. 28. 64. 408. 48. 148. 564. 108. 12. 20. 12. 4. 12. 20. 12.
      44. 12. 12. 68. 12. 4. 84. 4. 16. 88. 0. 40. 88. 0. 0. -26. -18.
      16. -32. 12. 4. -14. 6. -59. -9. -1. -16. -58. -48. -73. -55. 51.
      -7. -5. -1. -4. -4. 2. -10. -2. 0. 97. 5. 7. -66. -2. -14. 35. -9.
      7. 28. 24. 26. -30. 6. -44. 137. -33. 5. -10. 256. 8. 9. 245. -19.
      -4. 212. -14. -101. 157. -41. -133. 47. -69. -15. -15. 7. -8. -8.
      0. 7. 1. 9. 32. 52. 42. 42. 32. -62. -65. -15. 15. 38. -4. -4. 49.
      -13. -5. -38. 18. 36. 122. 34. -20. -14. -60. -12. 14. -48. 24.
      -18. -24. 0. -111. 7. 31. -159. 81. 43. -11. 121. -3. 12. 138. 20.
      102. 244. 86. 42. 298. -32. -76. 210. -56. -37. 167. 13. 13. 159.
      -21. 59. 153. 15. -5. 165. -3. 21. 81. -81. -47. -191. -21. 87.
      -163. 49. -33. -129. -15. -11. -75. 69. -50. 60. 66. -5. 135. 9.
      17. 129. -15. 94. 20. -94. 6. -78. -4. -66. -16. 66. -12. 62. 12.
      -7. 75. 1. 1. 3. -73. -56. -118. -48. -26. -132. 34. -17. 31. 51.
      93. 39. -43. -7. 37. 41. 23. 43. -35. 11. 3. -5. 4. -2. 0. 2. -2.
      0. 1. -1. 1. 2. 0. 0. 1. 1. 1. -1. 1. -1. -7. -1. -1. -65. 5. 7.
      -107. 9. -3. -51. -53. -59. 17. 105. -17. 34. 72. -16. 19. 41.
      -15. -24. 14. -12. 2. -2. -4. 4. -6. 0. 3. -5. 1. 2. -4. 0. 1. -5.
      -1. 2. -6. 0. -2. -6. 0. -5. -3. 3. -64. -6. -6. -112. -14. -2.
      -116. -22. -6. 1. 27. 1. 13. 23. -5. 4. 18. 0. -43. 11. -7. -7.
      -1. -5. 4. -6. 0. 3. -7. -1. 2. -8. 0. 1. -7. 1. 2. -6. 0. -2. -6.
      0. -2. -6. 0. -76. -12. -6. -107. -11. 7. -122. -4. 0. -1. -13.
      -3. 3. -21. -5. 2. -28. -2. -40. -20. 10. -10. -8. 2. 2. -8. -2.
      3. -9. 1. 2. -8. 0. 1. -9. -1. 2. -10. 0. -2. -10. 0. -2. -10. 0.
      -82. -10. 0. -78. 12. 22. -138. 18. -16. -4. 6. 0. -4. 4. -2. -7.
      -5. -7. -29. -11. 1. -9. -11. -1. 0. -12. 0. 4. -12. 0. 2. -12. 0.
      1. -11. 1. 1. -11. -1. -2. -12. 0. -1. -11. 1. -101. -29. -19.
      -97. -89. -41. -91. -67. 63. -1. 13. 3. -4. 18. 2. -12. 22. 2.
      -38. 14. -10. -31. -17. -21. 1. -37. 1. -3. -43. -7. -3. -55. -5.
      -4. -66. -6. -4. -76. -4. -5. -83. -3. 10. -76. 10. -82. -28. 38.
      -112. 36. 26. -37. 53. -9. -1. -1. -3. -4. -6. -2. -6. -4. 4. -23.
      25. 25. -25. 77. 27. 1. 103. -1. -6. 106. 4. -6. 112. 2. -6. 118.
      4. -8. 122. 0. -11. 119. -3. -7. 89. -27. -29. 77. 15. -40. 138.
      46. -22. 208. 24. -3. 3. 1. -3. 7. 3. -2. 10. 0. 0. 8. -2. 0. 4.
      -2. 0. 2. 0. -2. 2. 0. -2. 4. 2. -1. 7. 1. -4. 12. 4. -8. 22. 6.
      -18. 44. 16. -10. 64. 4. -2. 60. -8. -2. 48. -4. 1. 9. 3. 0. 12.
      0. -1. 13. 1. -1. 15. 1. -2. 16. 0. 0. 16. 0. -1. 17. 1. 0. 18. 0.
